{"learner": {"attributes": {}, "feature_names": ["loan_amnt", "term", "installment", "emp_length", "annual_inc", "dti", "delinq_2yrs", "inq_last_6mths", "open_acc", "pub_rec", "revol_bal", "revol_util", "total_acc", "collections_12_mths_ex_med", "acc_now_delinq", "tot_coll_amt", "tot_cur_bal", "total_rev_hi_lim", "acc_open_past_24mths", "avg_cur_bal", "bc_open_to_buy", "bc_util", "chargeoff_within_12_mths", "delinq_amnt", "mo_sin_old_il_acct", "mo_sin_old_rev_tl_op", "mo_sin_rcnt_rev_tl_op", "mo_sin_rcnt_tl", "mort_acc", "mths_since_recent_bc", "mths_since_recent_inq", "num_accts_ever_120_pd", "num_actv_bc_tl", "num_actv_rev_tl", "num_bc_sats", "num_bc_tl", "num_il_tl", "num_op_rev_tl", "num_rev_accts", "num_rev_tl_bal_gt_0", "num_sats", "num_tl_120dpd_2m", "num_tl_30dpd", "num_tl_90g_dpd_24m", "num_tl_op_past_12m", "pct_tl_nvr_dlq", "percent_bc_gt_75", "pub_rec_bankruptcies", "tax_liens", "tot_hi_cred_lim", "total_bal_ex_mort", "total_bc_limit", "total_il_high_credit_limit", "credit_history_years", "fico_score", "home_ownership_MORTGAGE", "home_ownership_OTHER", "home_ownership_OWN", "home_ownership_RENT", "verification_status_Not Verified", "verification_status_Source Verified", "verification_status_Verified", "purpose_car", "purpose_credit_card", "purpose_debt_consolidation", "purpose_educational", "purpose_home_improvement", "purpose_house", "purpose_major_purchase", "purpose_medical", "purpose_moving", "purpose_other", "purpose_renewable_energy", "purpose_small_business", "purpose_vacation", "purpose_wedding"], "feature_types": ["float", "int", "float", "float", "float", "float", "float", "float", "float", "float", "float", "float", "float", "float", "float", "float", "float", "float", "float", "float", "float", "float", "float", "float", "float", "float", "float", "float", "float", "float", "float", "float", "float", "float", "float", "float", "float", "float", "float", "float", "float", "float", "float", "float", "float", "float", "float", "float", "float", "float", "float", "float", "float", "int", "float", "i", "i", "i", "i", "i", "i", "i", "i", "i", "i", "i", "i", "i", "i", "i", "i", "i", "i", "i", "i", "i"], "gradient_booster": {"model": {"cats": {"enc": [], "feature_segments": [], "sorted_idx": []}, "gbtree_model_param": {"num_parallel_tree": "1", "num_trees": "500"}, "iteration_indptr": [0, 1, 2, 3, 4, 5, 6, 7, 8, 9, 10, 11, 12, 13, 14, 15, 16, 17, 18, 19, 20, 21, 22, 23, 24, 25, 26, 27, 28, 29, 30, 31, 32, 33, 34, 35, 36, 37, 38, 39, 40, 41, 42, 43, 44, 45, 46, 47, 48, 49, 50, 51, 52, 53, 54, 55, 56, 57, 58, 59, 60, 61, 62, 63, 64, 65, 66, 67, 68, 69, 70, 71, 72, 73, 74, 75, 76, 77, 78, 79, 80, 81, 82, 83, 84, 85, 86, 87, 88, 89, 90, 91, 92, 93, 94, 95, 96, 97, 98, 99, 100, 101, 102, 103, 104, 105, 106, 107, 108, 109, 110, 111, 112, 113, 114, 115, 116, 117, 118, 119, 120, 121, 122, 123, 124, 125, 126, 127, 128, 129, 130, 131, 132, 133, 134, 135, 136, 137, 138, 139, 140, 141, 142, 143, 144, 145, 146, 147, 148, 149, 150, 151, 152, 153, 154, 155, 156, 157, 158, 159, 160, 161, 162, 163, 164, 165, 166, 167, 168, 169, 170, 171, 172, 173, 174, 175, 176, 177, 178, 179, 180, 181, 182, 183, 184, 185, 186, 187, 188, 189, 190, 191, 192, 193, 194, 195, 196, 197, 198, 199, 200, 201, 202, 203, 204, 205, 206, 207, 208, 209, 210, 211, 212, 213, 214, 215, 216, 217, 218, 219, 220, 221, 222, 223, 224, 225, 226, 227, 228, 229, 230, 231, 232, 233, 234, 235, 236, 237, 238, 239, 240, 241, 242, 243, 244, 245, 246, 247, 248, 249, 250, 251, 252, 253, 254, 255, 256, 257, 258, 259, 260, 261, 262, 263, 264, 265, 266, 267, 268, 269, 270, 271, 272, 273, 274, 275, 276, 277, 278, 279, 280, 281, 282, 283, 284, 285, 286, 287, 288, 289, 290, 291, 292, 293, 294, 295, 296, 297, 298, 299, 300, 301, 302, 303, 304, 305, 306, 307, 308, 309, 310, 311, 312, 313, 314, 315, 316, 317, 318, 319, 320, 321, 322, 323, 324, 325, 326, 327, 328, 329, 330, 331, 332, 333, 334, 335, 336, 337, 338, 339, 340, 341, 342, 343, 344, 345, 346, 347, 348, 349, 350, 351, 352, 353, 354, 355, 356, 357, 358, 359, 360, 361, 362, 363, 364, 365, 366, 367, 368, 369, 370, 371, 372, 373, 374, 375, 376, 377, 378, 379, 380, 381, 382, 383, 384, 385, 386, 387, 388, 389, 390, 391, 392, 393, 394, 395, 396, 397, 398, 399, 400, 401, 402, 403, 404, 405, 406, 407, 408, 409, 410, 411, 412, 413, 414, 415, 416, 417, 418, 419, 420, 421, 422, 423, 424, 425, 426, 427, 428, 429, 430, 431, 432, 433, 434, 435, 436, 437, 438, 439, 440, 441, 442, 443, 444, 445, 446, 447, 448, 449, 450, 451, 452, 453, 454, 455, 456, 457, 458, 459, 460, 461, 462, 463, 464, 465, 466, 467, 468, 469, 470, 471, 472, 473, 474, 475, 476, 477, 478, 479, 480, 481, 482, 483, 484, 485, 486, 487, 488, 489, 490, 491, 492, 493, 494, 495, 496, 497, 498, 499, 500], "tree_info": [0, 0, 0, 0, 0, 0, 0, 0, 0, 0, 0, 0, 0, 0, 0, 0, 0, 0, 0, 0, 0, 0, 0, 0, 0, 0, 0, 0, 0, 0, 0, 0, 0, 0, 0, 0, 0, 0, 0, 0, 0, 0, 0, 0, 0, 0, 0, 0, 0, 0, 0, 0, 0, 0, 0, 0, 0, 0, 0, 0, 0, 0, 0, 0, 0, 0, 0, 0, 0, 0, 0, 0, 0, 0, 0, 0, 0, 0, 0, 0, 0, 0, 0, 0, 0, 0, 0, 0, 0, 0, 0, 0, 0, 0, 0, 0, 0, 0, 0, 0, 0, 0, 0, 0, 0, 0, 0, 0, 0, 0, 0, 0, 0, 0, 0, 0, 0, 0, 0, 0, 0, 0, 0, 0, 0, 0, 0, 0, 0, 0, 0, 0, 0, 0, 0, 0, 0, 0, 0, 0, 0, 0, 0, 0, 0, 0, 0, 0, 0, 0, 0, 0, 0, 0, 0, 0, 0, 0, 0, 0, 0, 0, 0, 0, 0, 0, 0, 0, 0, 0, 0, 0, 0, 0, 0, 0, 0, 0, 0, 0, 0, 0, 0, 0, 0, 0, 0, 0, 0, 0, 0, 0, 0, 0, 0, 0, 0, 0, 0, 0, 0, 0, 0, 0, 0, 0, 0, 0, 0, 0, 0, 0, 0, 0, 0, 0, 0, 0, 0, 0, 0, 0, 0, 0, 0, 0, 0, 0, 0, 0, 0, 0, 0, 0, 0, 0, 0, 0, 0, 0, 0, 0, 0, 0, 0, 0, 0, 0, 0, 0, 0, 0, 0, 0, 0, 0, 0, 0, 0, 0, 0, 0, 0, 0, 0, 0, 0, 0, 0, 0, 0, 0, 0, 0, 0, 0, 0, 0, 0, 0, 0, 0, 0, 0, 0, 0, 0, 0, 0, 0, 0, 0, 0, 0, 0, 0, 0, 0, 0, 0, 0, 0, 0, 0, 0, 0, 0, 0, 0, 0, 0, 0, 0, 0, 0, 0, 0, 0, 0, 0, 0, 0, 0, 0, 0, 0, 0, 0, 0, 0, 0, 0, 0, 0, 0, 0, 0, 0, 0, 0, 0, 0, 0, 0, 0, 0, 0, 0, 0, 0, 0, 0, 0, 0, 0, 0, 0, 0, 0, 0, 0, 0, 0, 0, 0, 0, 0, 0, 0, 0, 0, 0, 0, 0, 0, 0, 0, 0, 0, 0, 0, 0, 0, 0, 0, 0, 0, 0, 0, 0, 0, 0, 0, 0, 0, 0, 0, 0, 0, 0, 0, 0, 0, 0, 0, 0, 0, 0, 0, 0, 0, 0, 0, 0, 0, 0, 0, 0, 0, 0, 0, 0, 0, 0, 0, 0, 0, 0, 0, 0, 0, 0, 0, 0, 0, 0, 0, 0, 0, 0, 0, 0, 0, 0, 0, 0, 0, 0, 0, 0, 0, 0, 0, 0, 0, 0, 0, 0, 0, 0, 0, 0, 0, 0, 0, 0, 0, 0, 0, 0, 0, 0, 0, 0, 0, 0, 0, 0, 0, 0, 0, 0, 0, 0, 0, 0, 0, 0, 0, 0, 0, 0, 0, 0, 0, 0, 0, 0, 0, 0], "trees": [{"base_weights": [-1.5624742e-08, -0.26744682, 0.6308345, -0.06595633, -0.74821913, 0.7968585, 0.23462108, -0.23153324, 0.18140449, -0.52067, -1.0093803, 0.9375241, 0.49216533, 0.6557864, 0.06953911, -0.023909349, -0.41421154, 0.32448545, -0.02693419, -0.26541764, -0.717395, -0.8802543, -1.3605593, 0.7978516, 1.1134231, 0.40060633, 0.7649274, 0.5877019, 0.99005204, -0.11015079, 0.28396943, -0.0227703, 0.014469029, -0.05814988, -0.022839887, 0.011726235, 0.050296076, -0.01955249, 0.016366066, -0.01115607, -0.053696413, -0.08358756, -0.03907832, -0.10324544, -0.061380643, -0.14192957, -0.090640105, 0.09541478, 0.06387184, 0.122003995, 0.0987426, 0.05402233, 0.02782471, 0.08644378, 0.06357809, 0.089006595, 0.049951702, 0.10427248, 0.05322206, 0.017630134, -0.023268074, 0.038210977, -0.008258435], "categories": [], "categories_nodes": [], "categories_segments": [], "categories_sizes": [], "default_left": [0, 0, 0, 0, 0, 0, 0, 0, 0, 0, 0, 0, 0, 0, 0, 0, 0, 0, 0, 0, 0, 0, 0, 0, 0, 0, 0, 0, 0, 0, 0, 0, 0, 0, 0, 0, 0, 0, 0, 0, 0, 0, 0, 0, 0, 0, 0, 0, 0, 0, 0, 0, 0, 0, 0, 0, 0, 0, 0, 0, 0, 0, 0], "id": 0, "left_children": [1, 3, 5, 7, 9, 11, 13, 15, 17, 19, 21, 23, 25, 27, 29, 31, 33, 35, 37, 39, 41, 43, 45, 47, 49, 51, 53, 55, 57, 59, 61, -1, -1, -1, -1, -1, -1, -1, -1, -1, -1, -1, -1, -1, -1, -1, -1, -1, -1, -1, -1, -1, -1, -1, -1, -1, -1, -1, -1, -1, -1, -1, -1], "loss_changes": [72620.195, 29281.812, 8429.105, 8724.643, 5302.453, 3868.3086, 2631.3381, 4839.72, 2546.2158, 2395.0586, 1878.6094, 1513.3594, 711.0781, 239.6377, 1048.088, 2052.424, 2109.289, 1872.54, 1117.7803, 867.7201, 1041.0312, 1229.7012, 291.3711, 853.87305, 361.125, 364.38477, 89.33984, 234.19043, 40.539185, 519.69916, 446.27838, 0.0, 0.0, 0.0, 0.0, 0.0, 0.0, 0.0, 0.0, 0.0, 0.0, 0.0, 0.0, 0.0, 0.0, 0.0, 0.0, 0.0, 0.0, 0.0, 0.0, 0.0, 0.0, 0.0, 0.0, 0.0, 0.0, 0.0, 0.0, 0.0, 0.0, 0.0, 0.0], "parents": [2147483647, 0, 0, 1, 1, 2, 2, 3, 3, 4, 4, 5, 5, 6, 6, 7, 7, 8, 8, 9, 9, 10, 10, 11, 11, 12, 12, 13, 13, 14, 14, 15, 15, 16, 16, 17, 17, 18, 18, 19, 19, 20, 20, 21, 21, 22, 22, 23, 23, 24, 24, 25, 25, 26, 26, 27, 27, 28, 28, 29, 29, 30, 30], "right_children": [2, 4, 6, 8, 10, 12, 14, 16, 18, 20, 22, 24, 26, 28, 30, 32, 34, 36, 38, 40, 42, 44, 46, 48, 50, 52, 54, 56, 58, 60, 62, -1, -1, -1, -1, -1, -1, -1, -1, -1, -1, -1, -1, -1, -1, -1, -1, -1, -1, -1, -1, -1, -1, -1, -1, -1, -1, -1, -1, -1, -1, -1, -1], "split_conditions": [60.0, 707.0, 707.0, 20.61, 160172.0, 14652.0, 1.0, 1.0, 1.0, 6.0, 752.0, 21.93, 24.29, 29.88, 19.64, 4.0, 5.0, 5.0, 6.0, 1.0, 23.01, 21.51, 874.12, 1.0, 5941.0, 13800.0, 687.0, 10000.0, 16.0, 15000.0, 742.0, -0.0227703, 0.014469029, -0.05814988, -0.022839887, 0.011726235, 0.050296076, -0.01955249, 0.016366066, -0.01115607, -0.053696413, -0.08358756, -0.03907832, -0.10324544, -0.061380643, -0.14192957, -0.090640105, 0.09541478, 0.06387184, 0.122003995, 0.0987426, 0.05402233, 0.02782471, 0.08644378, 0.06357809, 0.089006595, 0.049951702, 0.10427248, 0.05322206, 0.017630134, -0.023268074, 0.038210977, -0.008258435], "split_indices": [1, 54, 54, 5, 49, 19, 28, 28, 55, 30, 54, 5, 5, 5, 5, 18, 18, 18, 18, 59, 5, 5, 2, 28, 19, 51, 54, 51, 27, 51, 54, 0, 0, 0, 0, 0, 0, 0, 0, 0, 0, 0, 0, 0, 0, 0, 0, 0, 0, 0, 0, 0, 0, 0, 0, 0, 0, 0, 0, 0, 0, 0, 0], "split_type": [0, 0, 0, 0, 0, 0, 0, 0, 0, 0, 0, 0, 0, 0, 0, 0, 0, 0, 0, 0, 0, 0, 0, 0, 0, 0, 0, 0, 0, 0, 0, 0, 0, 0, 0, 0, 0, 0, 0, 0, 0, 0, 0, 0, 0, 0, 0, 0, 0, 0, 0, 0, 0, 0, 0, 0, 0, 0, 0, 0, 0, 0, 0], "sum_hessian": [430422.0, 302273.75, 128148.24, 213008.22, 89265.54, 90303.58, 37844.664, 127597.85, 85410.37, 47710.49, 41555.05, 61774.28, 28529.295, 10652.532, 27192.133, 59723.96, 67873.89, 50633.773, 34776.594, 20771.3, 26939.188, 30396.135, 11158.915, 34448.32, 27325.965, 21368.725, 7160.571, 8861.4, 1791.1322, 14795.838, 12396.294, 27039.0, 32684.959, 35711.848, 32162.043, 23433.74, 27200.031, 18453.457, 16323.137, 13263.385, 7507.9165, 19762.44, 7176.747, 19336.428, 11059.706, 9871.596, 1287.32, 17366.48, 17081.84, 14777.808, 12548.156, 9972.554, 11396.171, 4028.2446, 3132.326, 1990.6141, 6870.786, 1600.5988, 190.53346, 4432.1367, 10363.701, 9778.111, 2618.183], "tree_param": {"num_deleted": "0", "num_feature": "76", "num_nodes": "63", "size_leaf_vector": "1"}}, {"base_weights": [3.2634027e-06, -0.24090503, 0.5686326, -0.07890713, -0.7280364, 0.73917824, 0.25378793, -0.22399665, 0.14837468, -0.4943808, -0.9354827, 0.86444664, 0.4623116, 0.62010664, 0.10579355, -0.09532979, -0.47409946, 0.2844775, -0.061437782, -0.24974558, -0.676938, -0.75724936, -1.1360681, 0.7596337, 1.0620894, 0.26259726, 0.57495344, 0.51834494, 0.8144207, 0.22340977, -0.20570382, -0.023925072, 0.010348362, -0.060705334, -0.027366525, 0.0147050815, 0.044637706, 0.01200557, -0.020528186, -0.010792867, -0.049107846, -0.078856565, -0.035933938, -0.08864557, -0.04765636, -0.07738378, -0.12037462, 0.08943942, 0.062202867, 0.094986014, 0.11670267, 0.04377632, 0.010021628, 0.04629295, 0.07131616, 0.04073517, 0.07235015, 0.09696188, 0.067898475, 0.011604906, 0.04946884, 0.0032420326, -0.036478907], "categories": [], "categories_nodes": [], "categories_segments": [], "categories_sizes": [], "default_left": [0, 0, 0, 0, 0, 0, 0, 0, 0, 0, 0, 0, 0, 0, 0, 0, 0, 0, 0, 0, 0, 0, 0, 0, 0, 0, 0, 0, 0, 0, 0, 0, 0, 0, 0, 0, 0, 0, 0, 0, 0, 0, 0, 0, 0, 0, 0, 0, 0, 0, 0, 0, 0, 0, 0, 0, 0, 0, 0, 0, 0, 0, 0], "id": 1, "left_children": [1, 3, 5, 7, 9, 11, 13, 15, 17, 19, 21, 23, 25, 27, 29, 31, 33, 35, 37, 39, 41, 43, 45, 47, 49, 51, 53, 55, 57, 59, 61, -1, -1, -1, -1, -1, -1, -1, -1, -1, -1, -1, -1, -1, -1, -1, -1, -1, -1, -1, -1, -1, -1, -1, -1, -1, -1, -1, -1, -1, -1, -1, -1], "loss_changes": [58909.29, 23836.648, 6870.6094, 7475.341, 3651.5508, 2876.8672, 2437.7349, 4452.2393, 2522.3694, 1582.8965, 1423.0586, 1179.7148, 581.1714, 253.75488, 1173.9794, 2614.4402, 1251.6416, 1191.6841, 907.51953, 518.6705, 718.4453, 765.1201, 455.60547, 689.98047, 227.52344, 265.3769, 254.35645, 192.21753, 90.00586, 677.10754, 332.8036, 0.0, 0.0, 0.0, 0.0, 0.0, 0.0, 0.0, 0.0, 0.0, 0.0, 0.0, 0.0, 0.0, 0.0, 0.0, 0.0, 0.0, 0.0, 0.0, 0.0, 0.0, 0.0, 0.0, 0.0, 0.0, 0.0, 0.0, 0.0, 0.0, 0.0, 0.0, 0.0], "parents": [2147483647, 0, 0, 1, 1, 2, 2, 3, 3, 4, 4, 5, 5, 6, 6, 7, 7, 8, 8, 9, 9, 10, 10, 11, 11, 12, 12, 13, 13, 14, 14, 15, 15, 16, 16, 17, 17, 18, 18, 19, 19, 20, 20, 21, 21, 22, 22, 23, 23, 24, 24, 25, 25, 26, 26, 27, 27, 28, 28, 29, 29, 30, 30], "right_children": [2, 4, 6, 8, 10, 12, 14, 16, 18, 20, 22, 24, 26, 28, 30, 32, 34, 36, 38, 40, 42, 44, 46, 48, 50, 52, 54, 56, 58, 60, 62, -1, -1, -1, -1, -1, -1, -1, -1, -1, -1, -1, -1, -1, -1, -1, -1, -1, -1, -1, -1, -1, -1, -1, -1, -1, -1, -1, -1, -1, -1, -1, -1], "split_conditions": [60.0, 712.0, 702.0, 20.9, 133600.0, 14652.0, 1.0, 2.0, 687.0, 6.0, 737.0, 24.29, 15.3, 24.41, 737.0, 5.0, 3.0, 6.0, 94052.0, 1.0, 5.0, 23.12, 2.0, 1.0, 1.0, 3.0, 3.0, 536.92, 18800.0, 24.77, 5.0, -0.023925072, 0.010348362, -0.060705334, -0.027366525, 0.0147050815, 0.044637706, 0.01200557, -0.020528186, -0.010792867, -0.049107846, -0.078856565, -0.035933938, -0.08864557, -0.04765636, -0.07738378, -0.12037462, 0.08943942, 0.062202867, 0.094986014, 0.11670267, 0.04377632, 0.010021628, 0.04629295, 0.07131616, 0.04073517, 0.07235015, 0.09696188, 0.067898475, 0.011604906, 0.04946884, 0.0032420326, -0.036478907], "split_indices": [1, 54, 54, 5, 49, 19, 28, 28, 54, 30, 54, 5, 5, 5, 54, 18, 44, 18, 49, 59, 18, 5, 30, 28, 58, 28, 44, 2, 51, 5, 30, 0, 0, 0, 0, 0, 0, 0, 0, 0, 0, 0, 0, 0, 0, 0, 0, 0, 0, 0, 0, 0, 0, 0, 0, 0, 0, 0, 0, 0, 0, 0, 0], "split_type": [0, 0, 0, 0, 0, 0, 0, 0, 0, 0, 0, 0, 0, 0, 0, 0, 0, 0, 0, 0, 0, 0, 0, 0, 0, 0, 0, 0, 0, 0, 0, 0, 0, 0, 0, 0, 0, 0, 0, 0, 0, 0, 0, 0, 0, 0, 0, 0, 0, 0, 0, 0, 0, 0, 0, 0, 0, 0, 0, 0, 0, 0, 0], "sum_hessian": [430024.0, 302056.25, 127967.76, 226678.89, 75377.36, 83000.92, 44966.836, 138356.53, 88322.36, 35457.258, 39920.098, 57138.137, 25862.783, 12934.687, 32032.146, 91361.82, 46994.715, 53570.22, 34752.137, 15157.43, 20299.828, 21150.43, 18769.67, 37353.332, 19784.807, 9332.639, 16530.145, 8501.051, 4433.636, 23253.447, 8778.7, 52996.594, 38365.223, 28247.307, 18747.408, 28980.22, 24590.0, 15365.604, 19386.535, 9551.701, 5605.728, 15015.023, 5284.804, 14475.993, 6674.436, 2964.59, 15805.08, 18857.828, 18495.504, 9584.514, 10200.292, 4485.4985, 4847.14, 9141.939, 7388.206, 5526.2056, 2974.845, 2051.7317, 2381.9045, 16665.2, 6588.248, 3517.5273, 5261.173], "tree_param": {"num_deleted": "0", "num_feature": "76", "num_nodes": "63", "size_leaf_vector": "1"}}, {"base_weights": [6.1578357e-06, -0.21725515, 0.5137782, -0.030153312, -0.5710379, 0.63524115, 0.14287393, -0.1969356, 0.13572416, -0.3771753, -0.78293896, 0.7764661, 0.41728887, 0.37030852, -0.090043135, -0.018926403, -0.35558784, 0.26237807, -0.057608515, -0.1716294, -0.5392977, -0.9229663, -0.51356655, 0.6430625, 0.9189087, 0.22611585, 0.5221733, 0.23655832, 0.5913908, -0.27722394, 0.107963495, 0.016570706, -0.015731132, -0.02078873, -0.0490343, 0.002296778, 0.036530327, -0.018674461, 0.010633083, 0.003054856, -0.03055794, -0.06788638, -0.030072087, -0.06781531, -0.10337317, -0.06677927, -0.027296467, 0.07623182, 0.04999806, 0.08049641, 0.10443826, 0.037672814, 0.008110179, 0.06357501, 0.039222658, 0.05371321, 0.013763671, 0.052158117, 0.09205996, -0.047233865, -0.0029899415, 0.0022575352, 0.041248467], "categories": [], "categories_nodes": [], "categories_segments": [], "categories_sizes": [], "default_left": [0, 0, 0, 0, 0, 0, 0, 0, 0, 0, 0, 0, 0, 0, 0, 0, 0, 0, 0, 0, 0, 0, 0, 0, 0, 0, 0, 0, 0, 0, 0, 0, 0, 0, 0, 0, 0, 0, 0, 0, 0, 0, 0, 0, 0, 0, 0, 0, 0, 0, 0, 0, 0, 0, 0, 0, 0, 0, 0, 0, 0, 0, 0], "id": 2, "left_children": [1, 3, 5, 7, 9, 11, 13, 15, 17, 19, 21, 23, 25, 27, 29, 31, 33, 35, 37, 39, 41, 43, 45, 47, 49, 51, 53, 55, 57, 59, 61, -1, -1, -1, -1, -1, -1, -1, -1, -1, -1, -1, -1, -1, -1, -1, -1, -1, -1, -1, -1, -1, -1, -1, -1, -1, -1, -1, -1, -1, -1, -1, -1], "loss_changes": [47892.582, 19960.043, 5744.2266, 5456.828, 4283.492, 2955.0273, 1666.8843, 2777.6143, 2421.5444, 1815.0933, 1877.2402, 1104.5469, 756.9253, 470.05078, 576.4176, 1184.5073, 1034.5435, 1472.2686, 828.839, 650.8559, 1013.08887, 885.41406, 631.9536, 511.91504, 398.61133, 292.36023, 358.74316, 294.80573, 135.43433, 385.69574, 196.51312, 0.0, 0.0, 0.0, 0.0, 0.0, 0.0, 0.0, 0.0, 0.0, 0.0, 0.0, 0.0, 0.0, 0.0, 0.0, 0.0, 0.0, 0.0, 0.0, 0.0, 0.0, 0.0, 0.0, 0.0, 0.0, 0.0, 0.0, 0.0, 0.0, 0.0, 0.0, 0.0], "parents": [2147483647, 0, 0, 1, 1, 2, 2, 3, 3, 4, 4, 5, 5, 6, 6, 7, 7, 8, 8, 9, 9, 10, 10, 11, 11, 12, 12, 13, 13, 14, 14, 15, 15, 16, 16, 17, 17, 18, 18, 19, 19, 20, 20, 21, 21, 22, 22, 23, 23, 24, 24, 25, 25, 26, 26, 27, 27, 28, 28, 29, 29, 30, 30], "right_children": [2, 4, 6, 8, 10, 12, 14, 16, 18, 20, 22, 24, 26, 28, 30, 32, 34, 36, 38, 40, 42, 44, 46, 48, 50, 52, 54, 56, 58, 60, 62, -1, -1, -1, -1, -1, -1, -1, -1, -1, -1, -1, -1, -1, -1, -1, -1, -1, -1, -1, -1, -1, -1, -1, -1, -1, -1, -1, -1, -1, -1, -1, -1], "split_conditions": [60.0, 702.0, 712.0, 18.16, 144515.0, 11595.0, 180827.0, 1.0, 7462.0, 6.0, 21.51, 20.8, 15.84, 5.0, 19.45, 5.0, 5.0, 4.0, 3.0, 12400.0, 20.21, 4.0, 6.0, 1.0, 6.0, 3.0, 687.0, 11900.0, 29.5, 561.95, 8.0, 0.016570706, -0.015731132, -0.02078873, -0.0490343, 0.002296778, 0.036530327, -0.018674461, 0.010633083, 0.003054856, -0.03055794, -0.06788638, -0.030072087, -0.06781531, -0.10337317, -0.06677927, -0.027296467, 0.07623182, 0.04999806, 0.08049641, 0.10443826, 0.037672814, 0.008110179, 0.06357501, 0.039222658, 0.05371321, 0.013763671, 0.052158117, 0.09205996, -0.047233865, -0.0029899415, 0.0022575352, 0.041248467], "split_indices": [1, 54, 54, 5, 49, 19, 49, 28, 19, 30, 5, 5, 5, 18, 5, 30, 30, 18, 44, 51, 5, 30, 18, 28, 18, 28, 54, 51, 5, 2, 18, 0, 0, 0, 0, 0, 0, 0, 0, 0, 0, 0, 0, 0, 0, 0, 0, 0, 0, 0, 0, 0, 0, 0, 0, 0, 0, 0, 0, 0, 0, 0, 0], "split_type": [0, 0, 0, 0, 0, 0, 0, 0, 0, 0, 0, 0, 0, 0, 0, 0, 0, 0, 0, 0, 0, 0, 0, 0, 0, 0, 0, 0, 0, 0, 0, 0, 0, 0, 0, 0, 0, 0, 0, 0, 0, 0, 0, 0, 0, 0, 0, 0, 0, 0, 0, 0, 0, 0, 0, 0, 0, 0, 0, 0, 0, 0, 0], "sum_hessian": [429047.38, 301537.6, 127509.79, 197233.8, 104303.79, 96051.49, 31458.297, 98348.2, 98885.6, 54477.598, 49826.195, 58277.215, 37774.28, 15914.9795, 15543.316, 46349.383, 51998.816, 59744.6, 39140.996, 24026.299, 30451.297, 32776.117, 17050.078, 30107.664, 28169.549, 13387.9, 24386.379, 9922.453, 5992.5273, 7989.0547, 7554.2617, 19856.205, 26493.18, 24813.88, 27184.934, 17964.408, 41780.195, 21894.143, 17246.854, 9576.232, 14450.067, 19206.422, 11244.876, 10221.102, 22555.018, 10384.636, 6665.4414, 16409.256, 13698.409, 14782.461, 13387.088, 6563.269, 6824.6313, 13002.444, 11383.935, 2451.4778, 7470.975, 4954.775, 1037.7522, 4463.357, 3525.6975, 5904.1113, 1650.1501], "tree_param": {"num_deleted": "0", "num_feature": "76", "num_nodes": "63", "size_leaf_vector": "1"}}, {"base_weights": [9.69009e-06, -0.19607683, 0.4649607, -0.061978776, -0.60323036, 0.63061476, 0.23160827, -0.21165553, 0.09614119, -0.39407894, -0.76990646, 0.84386975, 0.5092304, 0.4148541, 0.026117306, 0.065660864, -0.3375514, 0.28860638, -0.05874624, -0.23799255, -0.61978346, -0.65194964, -1.0451528, 0.71745783, 0.9622013, 0.37335593, 0.6610494, 0.33291775, 0.7109234, 0.11439616, -0.31640297, -0.004312181, 0.027164727, -0.019282678, -0.046714693, 0.018332433, 0.047773283, -0.021496937, 0.0063654454, -0.036884144, 0.00064157374, -0.07338906, -0.035446066, -0.07786222, -0.039108273, -0.10931283, -0.054274715, 0.081606254, 0.05893276, 0.08536799, 0.104621924, 0.01937222, 0.046124335, 0.053887676, 0.07799637, 0.05036793, 0.01969651, 0.076905906, 0.04675434, -0.0045647505, 0.027281702, -0.05440494, -0.0053372], "categories": [], "categories_nodes": [], "categories_segments": [], "categories_sizes": [], "default_left": [0, 0, 0, 0, 0, 0, 0, 0, 0, 0, 0, 0, 0, 0, 0, 0, 0, 0, 0, 0, 0, 0, 0, 0, 0, 0, 0, 0, 0, 0, 0, 0, 0, 0, 0, 0, 0, 0, 0, 0, 0, 0, 0, 0, 0, 0, 0, 0, 0, 0, 0, 0, 0, 0, 0, 0, 0, 0, 0, 0, 0, 0, 0], "id": 3, "left_children": [1, 3, 5, 7, 9, 11, 13, 15, 17, 19, 21, 23, 25, 27, 29, 31, 33, 35, 37, 39, 41, 43, 45, 47, 49, 51, 53, 55, 57, 59, 61, -1, -1, -1, -1, -1, -1, -1, -1, -1, -1, -1, -1, -1, -1, -1, -1, -1, -1, -1, -1, -1, -1, -1, -1, -1, -1, -1, -1, -1, -1, -1, -1], "loss_changes": [38993.543, 16424.59, 4903.5312, 5355.9663, 2596.6855, 1918.4512, 1983.6343, 4058.9707, 3280.7422, 1164.0952, 1343.0762, 399.01172, 974.3779, 674.35205, 751.2181, 813.5317, 1499.2197, 976.69214, 1166.1606, 625.3849, 407.85156, 958.2344, 296.70605, 162.19727, 122.10742, 393.75952, 322.31445, 506.07275, 83.545166, 500.85886, 304.70126, 0.0, 0.0, 0.0, 0.0, 0.0, 0.0, 0.0, 0.0, 0.0, 0.0, 0.0, 0.0, 0.0, 0.0, 0.0, 0.0, 0.0, 0.0, 0.0, 0.0, 0.0, 0.0, 0.0, 0.0, 0.0, 0.0, 0.0, 0.0, 0.0, 0.0, 0.0, 0.0], "parents": [2147483647, 0, 0, 1, 1, 2, 2, 3, 3, 4, 4, 5, 5, 6, 6, 7, 7, 8, 8, 9, 9, 10, 10, 11, 11, 12, 12, 13, 13, 14, 14, 15, 15, 16, 16, 17, 17, 18, 18, 19, 19, 20, 20, 21, 21, 22, 22, 23, 23, 24, 24, 25, 25, 26, 26, 27, 27, 28, 28, 29, 29, 30, 30], "right_children": [2, 4, 6, 8, 10, 12, 14, 16, 18, 20, 22, 24, 26, 28, 30, 32, 34, 36, 38, 40, 42, 44, 46, 48, 50, 52, 54, 56, 58, 60, 62, -1, -1, -1, -1, -1, -1, -1, -1, -1, -1, -1, -1, -1, -1, -1, -1, -1, -1, -1, -1, -1, -1, -1, -1, -1, -1, -1, -1, -1, -1, -1, -1], "split_conditions": [60.0, 712.0, 697.0, 5.0, 119394.0, 1.0, 180827.0, 43000.0, 1.0, 1.0, 752.0, 5.0, 19.83, 26.85, 742.0, 1.0, 6.0, 23.69, 17.98, 5.0, 21.2, 6.0, 942.59, 14000.0, 20.8, 4.0, 6.0, 5.0, 732.0, 20.02, 524.89, -0.004312181, 0.027164727, -0.019282678, -0.046714693, 0.018332433, 0.047773283, -0.021496937, 0.0063654454, -0.036884144, 0.00064157374, -0.07338906, -0.035446066, -0.07786222, -0.039108273, -0.10931283, -0.054274715, 0.081606254, 0.05893276, 0.08536799, 0.104621924, 0.01937222, 0.046124335, 0.053887676, 0.07799637, 0.05036793, 0.01969651, 0.076905906, 0.04675434, -0.0045647505, 0.027281702, -0.05440494, -0.0053372], "split_indices": [1, 54, 54, 18, 49, 28, 49, 4, 28, 59, 54, 18, 5, 5, 54, 61, 30, 5, 5, 18, 5, 18, 2, 51, 5, 18, 18, 30, 54, 5, 2, 0, 0, 0, 0, 0, 0, 0, 0, 0, 0, 0, 0, 0, 0, 0, 0, 0, 0, 0, 0, 0, 0, 0, 0, 0, 0, 0, 0, 0, 0, 0, 0], "split_type": [0, 0, 0, 0, 0, 0, 0, 0, 0, 0, 0, 0, 0, 0, 0, 0, 0, 0, 0, 0, 0, 0, 0, 0, 0, 0, 0, 0, 0, 0, 0, 0, 0, 0, 0, 0, 0, 0, 0, 0, 0, 0, 0, 0, 0, 0, 0, 0, 0, 0, 0, 0, 0, 0, 0, 0, 0, 0, 0, 0, 0, 0, 0], "sum_hessian": [427688.56, 300823.4, 126865.125, 226297.1, 74526.32, 74190.02, 52675.1, 116251.48, 110045.625, 33059.21, 41467.11, 26900.293, 47289.734, 27842.0, 24833.102, 36298.203, 79953.27, 49068.34, 60977.285, 19549.791, 13509.42, 29039.205, 12427.904, 13023.16, 13877.133, 24964.443, 22325.291, 21815.297, 6026.703, 19746.979, 5086.1226, 23756.307, 12541.896, 37777.758, 42175.516, 31527.566, 17540.773, 26785.936, 34191.35, 12731.293, 6818.4976, 9440.517, 4068.9036, 19540.668, 9498.536, 11339.226, 1088.6786, 7344.3535, 5678.806, 6079.883, 7797.25, 8206.713, 16757.73, 11025.424, 11299.867, 9663.75, 12151.548, 4855.9673, 1170.7358, 9824.947, 9922.032, 2723.5874, 2362.5352], "tree_param": {"num_deleted": "0", "num_feature": "76", "num_nodes": "63", "size_leaf_vector": "1"}}, {"base_weights": [1.3063671e-05, -0.17706199, 0.42126656, -0.00010503878, -0.4409737, 0.5728269, 0.20905809, -0.096170776, 0.21656363, -0.3223338, -0.70791787, 0.70460325, 0.3989812, 0.4260499, 0.0571949, 0.0032687387, -0.29613844, 0.07895121, 0.36516118, -0.41219893, -0.05770773, -0.3173965, -0.8111679, 0.6202937, 0.8761266, 0.17538437, 0.49583355, 0.3355416, 0.62855154, 0.1762895, -0.17350999, -0.009657158, 0.018820232, -0.049724497, -0.0185747, -0.0041635437, 0.022800602, 0.016017614, 0.045453582, -0.008322451, -0.049450234, -0.015389514, 0.020819658, -0.014286463, -0.05431068, -0.059907746, -0.09605583, 0.05352158, 0.07746749, 0.079229645, 0.09729, 0.035216957, 0.007745719, 0.0584713, 0.032224756, 0.04478697, 0.01531707, 0.07748303, 0.047755446, 0.03803321, 0.007242664, 0.0055326144, -0.029410297], "categories": [], "categories_nodes": [], "categories_segments": [], "categories_sizes": [], "default_left": [0, 0, 0, 0, 0, 0, 0, 0, 0, 0, 0, 0, 0, 0, 0, 0, 0, 0, 0, 0, 0, 0, 0, 0, 0, 0, 0, 0, 0, 0, 0, 0, 0, 0, 0, 0, 0, 0, 0, 0, 0, 0, 0, 0, 0, 0, 0, 0, 0, 0, 0, 0, 0, 0, 0, 0, 0, 0, 0, 0, 0, 0, 0], "id": 4, "left_children": [1, 3, 5, 7, 9, 11, 13, 15, 17, 19, 21, 23, 25, 27, 29, 31, 33, 35, 37, 39, 41, 43, 45, 47, 49, 51, 53, 55, 57, 59, 61, -1, -1, -1, -1, -1, -1, -1, -1, -1, -1, -1, -1, -1, -1, -1, -1, -1, -1, -1, -1, -1, -1, -1, -1, -1, -1, -1, -1, -1, -1, -1, -1], "loss_changes": [31782.695, 14009.411, 4055.0098, 3737.936, 3812.1777, 1683.707, 1731.4028, 2474.043, 1127.9084, 1982.4346, 1492.3652, 602.2617, 686.65625, 395.43408, 849.62756, 1534.4701, 916.9126, 514.9546, 485.53613, 1684.8047, 540.8523, 305.0797, 925.2969, 366.5498, 107.89258, 166.00912, 340.5703, 306.14624, 145.61768, 432.05066, 290.63412, 0.0, 0.0, 0.0, 0.0, 0.0, 0.0, 0.0, 0.0, 0.0, 0.0, 0.0, 0.0, 0.0, 0.0, 0.0, 0.0, 0.0, 0.0, 0.0, 0.0, 0.0, 0.0, 0.0, 0.0, 0.0, 0.0, 0.0, 0.0, 0.0, 0.0, 0.0, 0.0], "parents": [2147483647, 0, 0, 1, 1, 2, 2, 3, 3, 4, 4, 5, 5, 6, 6, 7, 7, 8, 8, 9, 9, 10, 10, 11, 11, 12, 12, 13, 13, 14, 14, 15, 15, 16, 16, 17, 17, 18, 18, 19, 19, 20, 20, 21, 21, 22, 22, 23, 23, 24, 24, 25, 25, 26, 26, 27, 27, 28, 28, 29, 29, 30, 30], "right_children": [2, 4, 6, 8, 10, 12, 14, 16, 18, 20, 22, 24, 26, 28, 30, 32, 34, 36, 38, 40, 42, 44, 46, 48, 50, 52, 54, 56, 58, 60, 62, -1, -1, -1, -1, -1, -1, -1, -1, -1, -1, -1, -1, -1, -1, -1, -1, -1, -1, -1, -1, -1, -1, -1, -1, -1, -1, -1, -1, -1, -1, -1, -1], "split_conditions": [60.0, 697.0, 697.0, 23.01, 732.0, 2.0, 1.0, 2.0, 1.0, 24.77, 42300.0, 24.29, 14.85, 6.0, 727.0, 3.0, 4.0, 1.0, 4.0, 42000.0, 7.0, 1.0, 6.0, 6.0, 3.0, 155.0, 19409.0, 95700.0, 22900.0, 64500.0, 4.0, -0.009657158, 0.018820232, -0.049724497, -0.0185747, -0.0041635437, 0.022800602, 0.016017614, 0.045453582, -0.008322451, -0.049450234, -0.015389514, 0.020819658, -0.014286463, -0.05431068, -0.059907746, -0.09605583, 0.05352158, 0.07746749, 0.079229645, 0.09729, 0.035216957, 0.007745719, 0.0584713, 0.032224756, 0.04478697, 0.01531707, 0.07748303, 0.047755446, 0.03803321, 0.007242664, 0.0055326144, -0.029410297], "split_indices": [1, 54, 54, 5, 54, 28, 55, 28, 58, 5, 4, 5, 5, 18, 54, 44, 18, 61, 18, 4, 18, 59, 30, 18, 44, 25, 19, 49, 51, 4, 30, 0, 0, 0, 0, 0, 0, 0, 0, 0, 0, 0, 0, 0, 0, 0, 0, 0, 0, 0, 0, 0, 0, 0, 0, 0, 0, 0, 0, 0, 0, 0, 0], "split_type": [0, 0, 0, 0, 0, 0, 0, 0, 0, 0, 0, 0, 0, 0, 0, 0, 0, 0, 0, 0, 0, 0, 0, 0, 0, 0, 0, 0, 0, 0, 0, 0, 0, 0, 0, 0, 0, 0, 0, 0, 0, 0, 0, 0, 0, 0, 0, 0, 0, 0, 0, 0, 0, 0, 0, 0, 0, 0, 0, 0, 0, 0, 0], "sum_hessian": [426068.7, 299975.9, 126092.8, 179573.83, 120402.08, 73552.63, 52540.164, 124414.27, 55159.55, 83363.35, 37038.727, 41829.957, 31722.674, 21627.865, 30912.299, 83096.92, 41317.355, 28642.299, 26517.252, 62228.28, 21135.068, 7749.2383, 29289.49, 28060.396, 13769.558, 9592.088, 22130.586, 14956.384, 6671.4824, 20388.51, 10523.789, 53965.1, 29131.816, 14636.203, 26681.15, 15835.138, 12807.161, 8055.5117, 18461.74, 12454.905, 49773.38, 15522.217, 5612.8525, 4374.666, 3374.572, 12114.917, 17174.572, 18105.164, 9955.232, 7402.8003, 6366.758, 3414.6802, 6177.407, 14628.609, 7501.978, 9251.073, 5705.3105, 3378.1938, 3293.2888, 6872.976, 13515.534, 3632.844, 6890.945], "tree_param": {"num_deleted": "0", "num_feature": "76", "num_nodes": "63", "size_leaf_vector": "1"}}, {"base_weights": [2.0423995e-05, -0.15993887, 0.381933, 0.02482658, -0.37210038, 0.5059118, 0.1564274, -0.12499643, 0.15025, -0.24099126, -0.58897954, 0.65189546, 0.36943445, 0.25867423, -0.13409948, 0.18657854, -0.1847136, 0.26630494, 0.0124828005, -0.11532216, -0.46071827, -0.73268735, -0.39198124, 0.52072436, 0.766881, 0.29409438, 0.6319364, 0.13072237, 0.40968308, -0.18811531, 0.40524375, 0.011758064, 0.05416573, -0.024246134, 0.009007687, 0.015966382, 0.04347884, -0.009079854, 0.014734171, -0.021525016, 0.01345045, -0.062165417, -0.032066952, -0.07711926, -0.0021768224, -0.020592684, -0.052955117, 0.06468156, 0.04077392, 0.06749985, 0.08711462, 0.05082971, 0.020426353, 0.05499494, 0.07718234, 0.005071414, 0.03549097, 0.027220014, 0.05227771, -0.031891122, 0.003935188, 0.09307618, 0.03133488], "categories": [], "categories_nodes": [], "categories_segments": [], "categories_sizes": [], "default_left": [0, 0, 0, 0, 0, 0, 0, 0, 0, 0, 0, 0, 0, 0, 0, 0, 0, 0, 0, 0, 0, 0, 0, 0, 0, 0, 0, 0, 0, 0, 0, 0, 0, 0, 0, 0, 0, 0, 0, 0, 0, 0, 0, 0, 0, 0, 0, 0, 0, 0, 0, 0, 0, 0, 0, 0, 0, 0, 0, 0, 0, 0, 0], "id": 5, "left_children": [1, 3, 5, 7, 9, 11, 13, 15, 17, 19, 21, 23, 25, 27, 29, 31, 33, 35, 37, 39, 41, 43, 45, 47, 49, 51, 53, 55, 57, 59, 61, -1, -1, -1, -1, -1, -1, -1, -1, -1, -1, -1, -1, -1, -1, -1, -1, -1, -1, -1, -1, -1, -1, -1, -1, -1, -1, -1, -1, -1, -1, -1, -1], "loss_changes": [25921.309, 11723.033, 3501.4824, 3003.9333, 3957.627, 1608.9922, 1320.3221, 1355.5322, 1391.2076, 2395.6392, 1483.2812, 586.88086, 825.3716, 634.92017, 337.51636, 286.77884, 970.1587, 848.2158, 554.2849, 1378.3123, 710.5083, 829.84766, 565.9248, 258.72852, 196.27344, 624.3281, 104.687744, 319.23828, 233.69946, 313.11688, 49.49283, 0.0, 0.0, 0.0, 0.0, 0.0, 0.0, 0.0, 0.0, 0.0, 0.0, 0.0, 0.0, 0.0, 0.0, 0.0, 0.0, 0.0, 0.0, 0.0, 0.0, 0.0, 0.0, 0.0, 0.0, 0.0, 0.0, 0.0, 0.0, 0.0, 0.0, 0.0, 0.0], "parents": [2147483647, 0, 0, 1, 1, 2, 2, 3, 3, 4, 4, 5, 5, 6, 6, 7, 7, 8, 8, 9, 9, 10, 10, 11, 11, 12, 12, 13, 13, 14, 14, 15, 15, 16, 16, 17, 17, 18, 18, 19, 19, 20, 20, 21, 21, 22, 22, 23, 23, 24, 24, 25, 25, 26, 26, 27, 27, 28, 28, 29, 29, 30, 30], "right_children": [2, 4, 6, 8, 10, 12, 14, 16, 18, 20, 22, 24, 26, 28, 30, 32, 34, 36, 38, 40, 42, 44, 46, 48, 50, 52, 54, 56, 58, 60, 62, -1, -1, -1, -1, -1, -1, -1, -1, -1, -1, -1, -1, -1, -1, -1, -1, -1, -1, -1, -1, -1, -1, -1, -1, -1, -1, -1, -1, -1, -1, -1, -1], "split_conditions": [60.0, 692.0, 205966.0, 17.08, 183920.0, 687.0, 717.0, 80.0, 6130.0, 1.0, 19.64, 18.89, 26.85, 6.0, 854.87, 507.76, 641.83, 1.0, 3.0, 6.0, 2.0, 1154.0, 5.0, 1.0, 6.0, 11700.0, 3.0, 24.53, 517.42, 22.03, 127.0, 0.011758064, 0.05416573, -0.024246134, 0.009007687, 0.015966382, 0.04347884, -0.009079854, 0.014734171, -0.021525016, 0.01345045, -0.062165417, -0.032066952, -0.07711926, -0.0021768224, -0.020592684, -0.052955117, 0.06468156, 0.04077392, 0.06749985, 0.08711462, 0.05082971, 0.020426353, 0.05499494, 0.07718234, 0.005071414, 0.03549097, 0.027220014, 0.05227771, -0.031891122, 0.003935188, 0.09307618, 0.03133488], "split_indices": [1, 54, 49, 5, 49, 54, 54, 25, 19, 59, 5, 5, 5, 18, 2, 2, 2, 61, 44, 18, 44, 2, 30, 28, 18, 51, 44, 5, 2, 5, 25, 0, 0, 0, 0, 0, 0, 0, 0, 0, 0, 0, 0, 0, 0, 0, 0, 0, 0, 0, 0, 0, 0, 0, 0, 0, 0, 0, 0, 0, 0, 0, 0], "split_type": [0, 0, 0, 0, 0, 0, 0, 0, 0, 0, 0, 0, 0, 0, 0, 0, 0, 0, 0, 0, 0, 0, 0, 0, 0, 0, 0, 0, 0, 0, 0, 0, 0, 0, 0, 0, 0, 0, 0, 0, 0, 0, 0, 0, 0, 0, 0, 0, 0, 0, 0, 0, 0, 0, 0, 0, 0, 0, 0, 0, 0, 0, 0], "sum_hessian": [424300.22, 299049.84, 125250.375, 159847.55, 139202.3, 80814.08, 44436.3, 72838.836, 87008.72, 86762.59, 52439.7, 39038.0, 41776.074, 32869.05, 11567.251, 11713.404, 61125.43, 47223.242, 39785.477, 55199.695, 31562.898, 30313.086, 22126.613, 18248.47, 20789.527, 32468.084, 9307.99, 17797.941, 15071.109, 10517.197, 1050.053, 9813.188, 1900.2156, 50511.03, 10614.398, 28924.986, 18298.256, 22531.455, 17254.021, 39429.15, 15770.546, 14678.281, 16884.615, 28755.203, 1557.8837, 9411.14, 12715.473, 8612.882, 9635.59, 11070.844, 9718.684, 9586.253, 22881.832, 5884.043, 3423.9475, 13121.319, 4676.6216, 6809.7983, 8261.311, 6676.2666, 3840.9307, 149.49515, 900.55786], "tree_param": {"num_deleted": "0", "num_feature": "76", "num_nodes": "63", "size_leaf_vector": "1"}}, {"base_weights": [3.133327e-05, -0.1444758, 0.34643552, -0.05171886, -0.50330323, 0.2302834, 0.55942196, -0.14877762, 0.12394071, -0.25596425, -0.6234343, 0.32945508, -0.030057698, 0.43610007, 0.6888872, 0.024517287, -0.2798753, 0.2254733, -0.08861812, -0.058989998, -0.39152503, -0.6903799, -0.12057507, 0.25186914, 0.5272323, -0.110301316, 0.21495938, 0.6198241, 0.34693372, 0.24659728, 0.7112441, 0.010879586, -0.016678972, -0.032766294, 0.015189962, 0.015368153, 0.045607265, -0.01615193, 0.023296792, 0.005851355, -0.025157452, -0.012038396, -0.048964556, -0.07525732, -0.027817383, 0.022596076, -0.048917454, 0.042362545, 0.017368622, 0.046026677, 0.06965436, 0.0063928985, -0.022435868, 0.023729844, -0.05287915, 0.03929785, 0.07069355, 0.021849738, 0.05060778, 0.043573275, 0.00789743, 0.07656945, 0.052083977], "categories": [], "categories_nodes": [], "categories_segments": [], "categories_sizes": [], "default_left": [0, 0, 0, 0, 0, 0, 0, 0, 0, 0, 0, 0, 0, 0, 0, 0, 0, 0, 0, 0, 0, 0, 0, 0, 0, 0, 0, 0, 0, 0, 0, 0, 0, 0, 0, 0, 0, 0, 0, 0, 0, 0, 0, 0, 0, 0, 0, 0, 0, 0, 0, 0, 0, 0, 0, 0, 0, 0, 0, 0, 0, 0, 0], "id": 6, "left_children": [1, 3, 5, 7, 9, 11, 13, 15, 17, 19, 21, 23, 25, 27, 29, 31, 33, 35, 37, 39, 41, 43, 45, 47, 49, 51, 53, 55, 57, 59, 61, -1, -1, -1, -1, -1, -1, -1, -1, -1, -1, -1, -1, -1, -1, -1, -1, -1, -1, -1, -1, -1, -1, -1, -1, -1, -1, -1, -1, -1, -1, -1, -1], "loss_changes": [21149.21, 9922.662, 3076.0703, 4039.0132, 1818.707, 2078.107, 699.16895, 3466.633, 1819.708, 534.65344, 1387.0029, 893.70605, 436.73166, 367.35107, 210.74121, 1059.7401, 1792.708, 944.2749, 639.2332, 184.95988, 315.29077, 931.3594, 619.82385, 561.91235, 184.54199, 332.5686, 91.680664, 143.69702, 309.16406, 32.716373, 209.17676, 0.0, 0.0, 0.0, 0.0, 0.0, 0.0, 0.0, 0.0, 0.0, 0.0, 0.0, 0.0, 0.0, 0.0, 0.0, 0.0, 0.0, 0.0, 0.0, 0.0, 0.0, 0.0, 0.0, 0.0, 0.0, 0.0, 0.0, 0.0, 0.0, 0.0, 0.0, 0.0], "parents": [2147483647, 0, 0, 1, 1, 2, 2, 3, 3, 4, 4, 5, 5, 6, 6, 7, 7, 8, 8, 9, 9, 10, 10, 11, 11, 12, 12, 13, 13, 14, 14, 15, 15, 16, 16, 17, 17, 18, 18, 19, 19, 20, 20, 21, 21, 22, 22, 23, 23, 24, 24, 25, 25, 26, 26, 27, 27, 28, 28, 29, 29, 30, 30], "right_children": [2, 4, 6, 8, 10, 12, 14, 16, 18, 20, 22, 24, 26, 28, 30, 32, 34, 36, 38, 40, 42, 44, 46, 48, 50, 52, 54, 56, 58, 60, 62, -1, -1, -1, -1, -1, -1, -1, -1, -1, -1, -1, -1, -1, -1, -1, -1, -1, -1, -1, -1, -1, -1, -1, -1, -1, -1, -1, -1, -1, -1, -1, -1], "split_conditions": [60.0, 717.0, 1.0, 6.0, 51000.0, 712.0, 5.0, 51000.0, 178538.0, 6.0, 942.59, 24.9, 25.16, 10300.0, 248.48, 1.0, 958.72, 507.76, 814.03, 1.0, 30160.0, 2.0, 22310.0, 137.0, 8.0, 71500.0, 787.0, 306.45, 20.31, 46000.0, 12300.0, 0.010879586, -0.016678972, -0.032766294, 0.015189962, 0.015368153, 0.045607265, -0.01615193, 0.023296792, 0.005851355, -0.025157452, -0.012038396, -0.048964556, -0.07525732, -0.027817383, 0.022596076, -0.048917454, 0.042362545, 0.017368622, 0.046026677, 0.06965436, 0.0063928985, -0.022435868, 0.023729844, -0.05287915, 0.03929785, 0.07069355, 0.021849738, 0.05060778, 0.043573275, 0.00789743, 0.07656945, 0.052083977], "split_indices": [1, 54, 58, 18, 4, 54, 18, 4, 49, 30, 2, 5, 5, 51, 2, 59, 2, 2, 2, 59, 4, 7, 10, 25, 18, 4, 54, 2, 5, 4, 20, 0, 0, 0, 0, 0, 0, 0, 0, 0, 0, 0, 0, 0, 0, 0, 0, 0, 0, 0, 0, 0, 0, 0, 0, 0, 0, 0, 0, 0, 0, 0, 0], "split_type": [0, 0, 0, 0, 0, 0, 0, 0, 0, 0, 0, 0, 0, 0, 0, 0, 0, 0, 0, 0, 0, 0, 0, 0, 0, 0, 0, 0, 0, 0, 0, 0, 0, 0, 0, 0, 0, 0, 0, 0, 0, 0, 0, 0, 0, 0, 0, 0, 0, 0, 0, 0, 0, 0, 0, 0, 0, 0, 0, 0, 0, 0, 0], "sum_hessian": [422485.2, 298122.38, 124362.81, 236891.58, 61230.78, 80482.234, 43880.58, 152583.84, 84307.74, 20022.31, 41208.473, 58280.227, 22202.004, 22484.682, 21395.896, 65717.51, 86866.336, 57054.38, 27253.363, 8165.194, 11857.116, 36365.3, 4843.1724, 41867.438, 16412.791, 16726.719, 5475.2866, 7337.0967, 15147.584, 1032.3771, 20363.52, 45621.516, 20095.99, 78211.336, 8655.002, 43515.246, 13539.134, 22218.977, 5034.3887, 5073.269, 3091.9246, 3153.643, 8703.474, 31594.256, 4771.0444, 2497.2952, 2345.8774, 13089.547, 28777.889, 11774.405, 4638.386, 6618.5835, 10108.134, 5318.9336, 156.353, 2043.4172, 5293.6797, 8389.085, 6758.4995, 481.30487, 551.0722, 15823.367, 4540.153], "tree_param": {"num_deleted": "0", "num_feature": "76", "num_nodes": "63", "size_leaf_vector": "1"}}, {"base_weights": [3.0847918e-05, -0.13052337, 0.31425935, 0.052181836, -0.29104343, 0.4049165, 0.072256394, -0.103428625, 0.15096866, -0.21147569, -0.56338084, 0.51006866, 0.24637249, 0.15984316, -0.20295978, 0.025630333, -0.24265924, 0.2157939, -0.056734193, -0.074379265, -0.34868982, -0.2956812, -0.68039054, 0.3832823, 0.5954566, 0.48300323, 0.17979138, 0.29037845, 0.025612032, -0.26645502, 0.2742711, -0.0035461974, 0.028257838, -0.011472658, -0.0389664, 0.029614184, 0.004703846, 0.003254338, -0.026480047, 0.0016776689, -0.025209857, -0.041638102, 0.0058151367, -0.007344921, -0.046315156, -0.07521422, -0.032180917, 0.05631278, 0.032248434, 0.050208505, 0.069736235, 0.034504373, 0.0691891, 0.032116205, 0.0066255047, 0.017997308, 0.041858383, 0.0118363565, -0.011928258, -0.0067290044, -0.039795887, 0.038961004, -0.008434332], "categories": [], "categories_nodes": [], "categories_segments": [], "categories_sizes": [], "default_left": [0, 0, 0, 0, 0, 0, 0, 0, 0, 0, 0, 0, 0, 0, 0, 0, 0, 0, 0, 0, 0, 0, 0, 0, 0, 0, 0, 0, 0, 0, 0, 0, 0, 0, 0, 0, 0, 0, 0, 0, 0, 0, 0, 0, 0, 0, 0, 0, 0, 0, 0, 0, 0, 0, 0, 0, 0, 0, 0, 0, 0, 0, 0], "id": 7, "left_children": [1, 3, 5, 7, 9, 11, 13, 15, 17, 19, 21, 23, 25, 27, 29, 31, 33, 35, 37, 39, 41, 43, 45, 47, 49, 51, 53, 55, 57, 59, 61, -1, -1, -1, -1, -1, -1, -1, -1, -1, -1, -1, -1, -1, -1, -1, -1, -1, -1, -1, -1, -1, -1, -1, -1, -1, -1, -1, -1, -1, -1, -1, -1], "loss_changes": [17257.766, 8716.252, 2708.8838, 2136.7947, 3427.586, 1496.8945, 811.46594, 969.9657, 1144.8683, 2303.1914, 1119.3711, 583.49316, 564.0598, 447.36993, 246.64368, 439.8473, 488.11914, 878.5818, 375.80066, 992.33856, 1685.3569, 405.04053, 639.0596, 236.87866, 305.2119, 225.44983, 448.8252, 182.85156, 169.32858, 187.80313, 39.741364, 0.0, 0.0, 0.0, 0.0, 0.0, 0.0, 0.0, 0.0, 0.0, 0.0, 0.0, 0.0, 0.0, 0.0, 0.0, 0.0, 0.0, 0.0, 0.0, 0.0, 0.0, 0.0, 0.0, 0.0, 0.0, 0.0, 0.0, 0.0, 0.0, 0.0, 0.0, 0.0], "parents": [2147483647, 0, 0, 1, 1, 2, 2, 3, 3, 4, 4, 5, 5, 6, 6, 7, 7, 8, 8, 9, 9, 10, 10, 11, 11, 12, 12, 13, 13, 14, 14, 15, 15, 16, 16, 17, 17, 18, 18, 19, 19, 20, 20, 21, 21, 22, 22, 23, 23, 24, 24, 25, 25, 26, 26, 27, 27, 28, 28, 29, 29, 30, 30], "right_children": [2, 4, 6, 8, 10, 12, 14, 16, 18, 20, 22, 24, 26, 28, 30, 32, 34, 36, 38, 40, 42, 44, 46, 48, 50, 52, 54, 56, 58, 60, 62, -1, -1, -1, -1, -1, -1, -1, -1, -1, -1, -1, -1, -1, -1, -1, -1, -1, -1, -1, -1, -1, -1, -1, -1, -1, -1, -1, -1, -1, -1, -1, -1], "split_conditions": [60.0, 687.0, 18163.0, 15.48, 732.0, 697.0, 11896.0, 153.0, 1.0, 61000.0, 17000.0, 18.16, 11700.0, 6.0, 864.18, 528.73, 1.0, 2.0, 9238.0, 1.0, 958.72, 6.0, 4.0, 115.0, 1.0, 465.27, 5.0, 541.65, 31764.0, 4.0, 508309.0, -0.0035461974, 0.028257838, -0.011472658, -0.0389664, 0.029614184, 0.004703846, 0.003254338, -0.026480047, 0.0016776689, -0.025209857, -0.041638102, 0.0058151367, -0.007344921, -0.046315156, -0.07521422, -0.032180917, 0.05631278, 0.032248434, 0.050208505, 0.069736235, 0.034504373, 0.0691891, 0.032116205, 0.0066255047, 0.017997308, 0.041858383, 0.0118363565, -0.011928258, -0.0067290044, -0.039795887, 0.038961004, -0.008434332], "split_indices": [1, 54, 19, 5, 54, 54, 20, 25, 59, 4, 51, 5, 51, 27, 2, 2, 55, 28, 19, 59, 2, 30, 44, 25, 58, 2, 30, 2, 19, 30, 16, 0, 0, 0, 0, 0, 0, 0, 0, 0, 0, 0, 0, 0, 0, 0, 0, 0, 0, 0, 0, 0, 0, 0, 0, 0, 0, 0, 0, 0, 0, 0, 0], "split_type": [0, 0, 0, 0, 0, 0, 0, 0, 0, 0, 0, 0, 0, 0, 0, 0, 0, 0, 0, 0, 0, 0, 0, 0, 0, 0, 0, 0, 0, 0, 0, 0, 0, 0, 0, 0, 0, 0, 0, 0, 0, 0, 0, 0, 0, 0, 0, 0, 0, 0, 0, 0, 0, 0, 0, 0, 0, 0, 0, 0, 0, 0, 0], "sum_hessian": [420666.38, 297192.94, 123473.44, 138993.19, 158199.77, 89821.77, 33651.66, 53973.344, 85019.84, 122436.77, 35762.984, 53997.55, 35824.223, 25529.17, 8122.4897, 28011.934, 25961.408, 64796.344, 20223.502, 61248.51, 61188.266, 10882.708, 24880.275, 21741.957, 32255.596, 7859.6343, 27964.59, 12939.814, 12589.3545, 7170.6484, 951.84143, 22634.61, 5377.3247, 13885.921, 12075.488, 43893.816, 20902.525, 14154.341, 6069.1606, 40486.61, 20761.902, 52459.77, 8728.496, 4679.8164, 6202.892, 20727.283, 4152.9907, 5482.6143, 16259.344, 16848.096, 15407.498, 4741.4272, 3118.2068, 12451.439, 15513.151, 6959.0093, 5980.8057, 7676.381, 4912.9736, 2854.7043, 4315.9443, 719.8791, 231.96239], "tree_param": {"num_deleted": "0", "num_feature": "76", "num_nodes": "63", "size_leaf_vector": "1"}}, {"base_weights": [2.8932212e-05, -0.11793779, 0.28507665, 0.04700607, -0.2634872, 0.48669374, 0.18755554, 0.16449586, -0.067218706, -0.12797937, -0.41660216, 0.33998832, 0.578379, 0.25422195, -0.09780497, -0.0026658217, 0.2667624, -0.1486202, 0.120567515, 0.045527134, -0.27554914, -0.3512756, -0.78157127, 0.5106915, 0.23230365, 0.66653574, 0.45232436, 0.15680446, 0.39723152, -0.1562375, 0.2175279, 0.014843042, -0.0086770225, 0.016045224, 0.03915414, 0.015452805, -0.019389546, 0.0023574433, 0.030312229, 0.01291358, -0.014183928, -0.04268406, -0.011042696, -0.04797736, -0.01975157, -0.045279026, -0.08421065, -0.018603338, 0.052991148, 0.012998665, 0.038676955, 0.05720031, 0.07384514, 0.03701484, 0.060729593, 0.030828718, 0.004529755, 0.050756242, 0.02661531, -0.027229866, -0.00014871983, 0.033329606, 0.0021574993], "categories": [], "categories_nodes": [], "categories_segments": [], "categories_sizes": [], "default_left": [0, 0, 0, 0, 0, 0, 0, 0, 0, 0, 0, 0, 0, 0, 0, 0, 0, 0, 0, 0, 0, 0, 0, 0, 0, 0, 0, 0, 0, 0, 0, 0, 0, 0, 0, 0, 0, 0, 0, 0, 0, 0, 0, 0, 0, 0, 0, 0, 0, 0, 0, 0, 0, 0, 0, 0, 0, 0, 0, 0, 0, 0, 0], "id": 8, "left_children": [1, 3, 5, 7, 9, 11, 13, 15, 17, 19, 21, 23, 25, 27, 29, 31, 33, 35, 37, 39, 41, 43, 45, 47, 49, 51, 53, 55, 57, 59, 61, -1, -1, -1, -1, -1, -1, -1, -1, -1, -1, -1, -1, -1, -1, -1, -1, -1, -1, -1, -1, -1, -1, -1, -1, -1, -1, -1, -1, -1, -1, -1, -1], "loss_changes": [14083.551, 7111.8477, 2410.003, 1863.7039, 3264.8613, 536.5586, 1572.1987, 1170.2845, 1076.4763, 2137.8074, 1760.1357, 282.16504, 271.7119, 932.9458, 288.5913, 330.33154, 563.1033, 674.39294, 377.04965, 601.2979, 1126.9023, 1237.8384, 221.2544, 80.114624, 148.9639, 96.17676, 127.9314, 673.11743, 391.81445, 237.23798, 55.525146, 0.0, 0.0, 0.0, 0.0, 0.0, 0.0, 0.0, 0.0, 0.0, 0.0, 0.0, 0.0, 0.0, 0.0, 0.0, 0.0, 0.0, 0.0, 0.0, 0.0, 0.0, 0.0, 0.0, 0.0, 0.0, 0.0, 0.0, 0.0, 0.0, 0.0, 0.0, 0.0], "parents": [2147483647, 0, 0, 1, 1, 2, 2, 3, 3, 4, 4, 5, 5, 6, 6, 7, 7, 8, 8, 9, 9, 10, 10, 11, 11, 12, 12, 13, 13, 14, 14, 15, 15, 16, 16, 17, 17, 18, 18, 19, 19, 20, 20, 21, 21, 22, 22, 23, 23, 24, 24, 25, 25, 26, 26, 27, 27, 28, 28, 29, 29, 30, 30], "right_children": [2, 4, 6, 8, 10, 12, 14, 16, 18, 20, 22, 24, 26, 28, 30, 32, 34, 36, 38, 40, 42, 44, 46, 48, 50, 52, 54, 56, 58, 60, 62, -1, -1, -1, -1, -1, -1, -1, -1, -1, -1, -1, -1, -1, -1, -1, -1, -1, -1, -1, -1, -1, -1, -1, -1, -1, -1, -1, -1, -1, -1, -1, -1], "split_conditions": [60.0, 687.0, 1.0, 1.0, 1.0, 4.0, 722.0, 4.0, 7.0, 6.0, 747.0, 11300.0, 6342.0, 6.0, 2.0, 5.0, 332.72, 37000.0, 496.52, 1.0, 4.0, 19.54, 46000.0, 224.2, 21.82, 20.8, 8.0, 66000.0, 3.0, 19.64, 93600.0, 0.014843042, -0.0086770225, 0.016045224, 0.03915414, 0.015452805, -0.019389546, 0.0023574433, 0.030312229, 0.01291358, -0.014183928, -0.04268406, -0.011042696, -0.04797736, -0.01975157, -0.045279026, -0.08421065, -0.018603338, 0.052991148, 0.012998665, 0.038676955, 0.05720031, 0.07384514, 0.03701484, 0.060729593, 0.030828718, 0.004529755, 0.050756242, 0.02661531, -0.027229866, -0.00014871983, 0.033329606, 0.0021574993], "split_indices": [1, 54, 28, 28, 55, 18, 54, 18, 18, 30, 54, 51, 20, 18, 7, 30, 2, 4, 2, 59, 18, 5, 4, 2, 5, 5, 39, 4, 28, 5, 4, 0, 0, 0, 0, 0, 0, 0, 0, 0, 0, 0, 0, 0, 0, 0, 0, 0, 0, 0, 0, 0, 0, 0, 0, 0, 0, 0, 0, 0, 0, 0, 0], "split_type": [0, 0, 0, 0, 0, 0, 0, 0, 0, 0, 0, 0, 0, 0, 0, 0, 0, 0, 0, 0, 0, 0, 0, 0, 0, 0, 0, 0, 0, 0, 0, 0, 0, 0, 0, 0, 0, 0, 0, 0, 0, 0, 0, 0, 0, 0, 0, 0, 0, 0, 0, 0, 0, 0, 0, 0, 0, 0, 0, 0, 0, 0, 0], "sum_hessian": [418817.4, 296227.06, 122590.35, 138863.44, 157363.61, 39958.79, 82631.56, 68452.3, 70411.15, 83486.586, 73877.02, 15377.237, 24581.553, 66983.34, 15648.218, 25984.205, 42468.09, 49119.773, 21291.377, 38372.836, 45113.754, 62669.496, 11207.53, 5940.912, 9436.325, 14452.62, 10128.933, 39848.92, 27134.426, 13203.985, 2444.232, 9290.214, 16693.99, 22937.258, 19530.834, 6381.211, 42738.562, 13907.72, 7383.6577, 26534.07, 11838.766, 23538.719, 21575.033, 34133.414, 28536.082, 1749.2644, 9458.266, 158.32208, 5782.5903, 5681.8916, 3754.433, 6263.742, 8188.8784, 6630.143, 3498.789, 16892.096, 22956.826, 14725.429, 12408.996, 7543.007, 5660.9785, 1534.2806, 909.9513], "tree_param": {"num_deleted": "0", "num_feature": "76", "num_nodes": "63", "size_leaf_vector": "1"}}, {"base_weights": [2.8857628e-05, -0.106582716, 0.25863555, -0.04176175, -0.42803648, 0.4425632, 0.16321762, 0.086334534, -0.14586402, -0.11080444, -0.5064774, 0.30096006, 0.54335445, 0.30353868, 0.048104454, 0.18080242, -0.07840237, -0.018923022, -0.2658351, 0.013226275, -0.2856833, -0.569151, -0.10145967, 0.5064846, 0.22752556, 0.3773601, 0.6066364, 0.23202129, 0.48944575, -0.14608978, 0.14253035, 0.012128933, 0.036153175, -0.025513778, 0.0017274674, -0.010305012, 0.015706293, -0.03100648, 0.010324749, 0.019501826, -0.008688684, -0.04106468, -0.005744575, -0.048596002, -0.079633616, -0.018168394, 0.048517022, -0.03768753, 0.052386224, 0.0057702777, 0.035150677, 0.023582047, 0.05152461, 0.053703368, 0.07061948, 0.009345743, 0.03203292, 0.055886175, 0.036273483, -0.027425492, 0.0023466889, 0.004981377, 0.02900537], "categories": [], "categories_nodes": [], "categories_segments": [], "categories_sizes": [], "default_left": [0, 0, 0, 0, 0, 0, 0, 0, 0, 0, 0, 0, 0, 0, 0, 0, 0, 0, 0, 0, 0, 0, 0, 0, 0, 0, 0, 0, 0, 0, 0, 0, 0, 0, 0, 0, 0, 0, 0, 0, 0, 0, 0, 0, 0, 0, 0, 0, 0, 0, 0, 0, 0, 0, 0, 0, 0, 0, 0, 0, 0, 0, 0], "id": 9, "left_children": [1, 3, 5, 7, 9, 11, 13, 15, 17, 19, 21, 23, 25, 27, 29, 31, 33, 35, 37, 39, 41, 43, 45, 47, 49, 51, 53, 55, 57, 59, 61, -1, -1, -1, -1, -1, -1, -1, -1, -1, -1, -1, -1, -1, -1, -1, -1, -1, -1, -1, -1, -1, -1, -1, -1, -1, -1, -1, -1, -1, -1, -1, -1], "loss_changes": [11495.225, 6151.603, 2135.644, 3276.4062, 1232.5264, 592.48926, 1294.4841, 1714.3477, 2064.1863, 213.19128, 1007.9404, 260.47668, 253.88818, 479.6245, 807.5309, 752.79614, 678.9379, 975.20337, 1137.709, 104.81889, 116.200226, 648.1299, 251.21997, 70.82056, 268.4016, 130.43054, 119.84961, 319.12305, 87.20239, 313.144, 405.19415, 0.0, 0.0, 0.0, 0.0, 0.0, 0.0, 0.0, 0.0, 0.0, 0.0, 0.0, 0.0, 0.0, 0.0, 0.0, 0.0, 0.0, 0.0, 0.0, 0.0, 0.0, 0.0, 0.0, 0.0, 0.0, 0.0, 0.0, 0.0, 0.0, 0.0, 0.0, 0.0], "parents": [2147483647, 0, 0, 1, 1, 2, 2, 3, 3, 4, 4, 5, 5, 6, 6, 7, 7, 8, 8, 9, 9, 10, 10, 11, 11, 12, 12, 13, 13, 14, 14, 15, 15, 16, 16, 17, 17, 18, 18, 19, 19, 20, 20, 21, 21, 22, 22, 23, 23, 24, 24, 25, 25, 26, 26, 27, 27, 28, 28, 29, 29, 30, 30], "right_children": [2, 4, 6, 8, 10, 12, 14, 16, 18, 20, 22, 24, 26, 28, 30, 32, 34, 36, 38, 40, 42, 44, 46, 48, 50, 52, 54, 56, 58, 60, 62, -1, -1, -1, -1, -1, -1, -1, -1, -1, -1, -1, -1, -1, -1, -1, -1, -1, -1, -1, -1, -1, -1, -1, -1, -1, -1, -1, -1, -1, -1, -1, -1], "split_conditions": [60.0, 722.0, 89488.0, 5.0, 41000.0, 4.0, 692.0, 2.0, 56000.0, 1.0, 2.0, 43000.0, 14.41, 25.43, 15.84, 507.76, 14.94, 1.0, 958.72, 28000.0, 1.0, 762.0, 958.72, 213.21, 446.11, 426.42, 7.0, 437.96, 18.0, 536.92, 3.0, 0.012128933, 0.036153175, -0.025513778, 0.0017274674, -0.010305012, 0.015706293, -0.03100648, 0.010324749, 0.019501826, -0.008688684, -0.04106468, -0.005744575, -0.048596002, -0.079633616, -0.018168394, 0.048517022, -0.03768753, 0.052386224, 0.0057702777, 0.035150677, 0.023582047, 0.05152461, 0.053703368, 0.07061948, 0.009345743, 0.03203292, 0.055886175, 0.036273483, -0.027425492, 0.0023466889, 0.004981377, 0.02900537], "split_indices": [1, 54, 49, 30, 4, 18, 54, 28, 4, 59, 7, 4, 5, 5, 5, 2, 5, 61, 2, 4, 7, 54, 2, 2, 2, 2, 18, 2, 29, 2, 44, 0, 0, 0, 0, 0, 0, 0, 0, 0, 0, 0, 0, 0, 0, 0, 0, 0, 0, 0, 0, 0, 0, 0, 0, 0, 0, 0, 0, 0, 0, 0, 0], "split_type": [0, 0, 0, 0, 0, 0, 0, 0, 0, 0, 0, 0, 0, 0, 0, 0, 0, 0, 0, 0, 0, 0, 0, 0, 0, 0, 0, 0, 0, 0, 0, 0, 0, 0, 0, 0, 0, 0, 0, 0, 0, 0, 0, 0, 0, 0, 0, 0, 0, 0, 0, 0, 0, 0, 0, 0, 0, 0, 0, 0, 0, 0, 0], "sum_hessian": [416929.78, 295225.1, 121704.7, 245687.92, 49537.176, 41565.277, 80139.42, 110150.39, 135537.53, 9822.982, 39714.195, 17291.762, 24273.516, 36111.684, 44027.74, 70005.47, 40144.918, 65858.58, 69678.95, 5749.6997, 4073.283, 34390.49, 5323.705, 4544.203, 12747.559, 6709.279, 17564.236, 26087.293, 10024.392, 14403.363, 29624.375, 52669.93, 17335.541, 14096.822, 26048.096, 44559.664, 21298.916, 62223.133, 7455.8203, 2040.2107, 3709.489, 2629.5623, 1443.7208, 25184.203, 9206.287, 4686.286, 637.419, 85.674225, 4458.529, 5382.385, 7365.174, 3317.462, 3391.8167, 10356.101, 7208.1367, 10158.264, 15929.03, 6465.4023, 3558.9897, 8201.155, 6202.2075, 18195.45, 11428.926], "tree_param": {"num_deleted": "0", "num_feature": "76", "num_nodes": "63", "size_leaf_vector": "1"}}, {"base_weights": [2.5460677e-05, -0.09629282, 0.2345724, 0.020864474, -0.25010803, 0.1432635, 0.40647334, -0.12939207, 0.12589353, -0.34609157, -0.006585333, 0.2898609, 0.042876076, 0.32366616, 0.5534078, -0.036706135, -0.31519014, 0.25278705, 0.02091506, -0.25149104, -0.52674174, 0.1381349, -0.15637983, 0.21251422, 0.43117398, 0.18895008, -0.04899175, 0.26821434, 0.53336793, 0.60690784, 0.3696657, 0.0172604, -0.009433397, -0.034081206, 0.029834388, 0.03194388, 0.006154759, -0.0052354806, 0.02073167, -0.033984687, -0.00864122, -0.017331285, -0.05927993, -0.0048060142, 0.026499195, -0.024472624, 0.00800199, 0.008750406, 0.030544857, 0.06970694, 0.039828114, 0.0043403218, 0.027857129, -0.010602637, 0.032766007, 0.045437966, 0.019138912, 0.05806912, 0.030699585, 0.048781525, 0.06676807, 0.022904659, 0.048338827], "categories": [], "categories_nodes": [], "categories_segments": [], "categories_sizes": [], "default_left": [0, 0, 0, 0, 0, 0, 0, 0, 0, 0, 0, 0, 0, 0, 0, 0, 0, 0, 0, 0, 0, 0, 0, 0, 0, 0, 0, 0, 0, 0, 0, 0, 0, 0, 0, 0, 0, 0, 0, 0, 0, 0, 0, 0, 0, 0, 0, 0, 0, 0, 0, 0, 0, 0, 0, 0, 0, 0, 0, 0, 0, 0, 0], "id": 10, "left_children": [1, 3, 5, 7, 9, 11, 13, 15, 17, 19, 21, 23, 25, 27, 29, 31, 33, 35, 37, 39, 41, 43, 45, 47, 49, 51, 53, 55, 57, 59, 61, -1, -1, -1, -1, -1, -1, -1, -1, -1, -1, -1, -1, -1, -1, -1, -1, -1, -1, -1, -1, -1, -1, -1, -1, -1, -1, -1, -1, -1, -1, -1, -1], "loss_changes": [9380.0, 5304.125, 1896.9092, 2636.8494, 2974.5615, 1161.7775, 509.25342, 1183.7543, 1310.0212, 1559.291, 780.16077, 350.2627, 628.9545, 311.24683, 147.3667, 553.36115, 360.15796, 567.42505, 735.17316, 873.8013, 731.81445, 432.41168, 369.42792, 240.901, 97.84033, 235.9776, 618.3205, 303.1615, 59.15796, 82.987305, 54.12433, 0.0, 0.0, 0.0, 0.0, 0.0, 0.0, 0.0, 0.0, 0.0, 0.0, 0.0, 0.0, 0.0, 0.0, 0.0, 0.0, 0.0, 0.0, 0.0, 0.0, 0.0, 0.0, 0.0, 0.0, 0.0, 0.0, 0.0, 0.0, 0.0, 0.0, 0.0, 0.0], "parents": [2147483647, 0, 0, 1, 1, 2, 2, 3, 3, 4, 4, 5, 5, 6, 6, 7, 7, 8, 8, 9, 9, 10, 10, 11, 11, 12, 12, 13, 13, 14, 14, 15, 15, 16, 16, 17, 17, 18, 18, 19, 19, 20, 20, 21, 21, 22, 22, 23, 23, 24, 24, 25, 25, 26, 26, 27, 27, 28, 28, 29, 29, 30, 30], "right_children": [2, 4, 6, 8, 10, 12, 14, 16, 18, 20, 22, 24, 26, 28, 30, 32, 34, 36, 38, 40, 42, 44, 46, 48, 50, 52, 54, 56, 58, 60, 62, -1, -1, -1, -1, -1, -1, -1, -1, -1, -1, -1, -1, -1, -1, -1, -1, -1, -1, -1, -1, -1, -1, -1, -1, -1, -1, -1, -1, -1, -1, -1, -1], "split_conditions": [60.0, 5265.0, 1.0, 4.0, 7.0, 687.0, 3.0, 105312.0, 1.0, 722.0, 1.0, 22.67, 66000.0, 26.85, 13175.0, 30160.0, 1154.0, 1.0, 510.27, 20.8, 39500.0, 316.51, 25.03, 441.24, 94.0, 363.99, 854.87, 9500.0, 11316.0, 372.71, 467.7, 0.0172604, -0.009433397, -0.034081206, 0.029834388, 0.03194388, 0.006154759, -0.0052354806, 0.02073167, -0.033984687, -0.00864122, -0.017331285, -0.05927993, -0.0048060142, 0.026499195, -0.024472624, 0.00800199, 0.008750406, 0.030544857, 0.06970694, 0.039828114, 0.0043403218, 0.027857129, -0.010602637, 0.032766007, 0.045437966, 0.019138912, 0.05806912, 0.030699585, 0.048781525, 0.06676807, 0.022904659, 0.048338827], "split_indices": [1, 20, 58, 18, 18, 54, 44, 49, 28, 54, 55, 5, 4, 5, 20, 4, 2, 59, 2, 5, 4, 2, 5, 2, 25, 2, 2, 51, 20, 2, 2, 0, 0, 0, 0, 0, 0, 0, 0, 0, 0, 0, 0, 0, 0, 0, 0, 0, 0, 0, 0, 0, 0, 0, 0, 0, 0, 0, 0, 0, 0, 0, 0], "split_type": [0, 0, 0, 0, 0, 0, 0, 0, 0, 0, 0, 0, 0, 0, 0, 0, 0, 0, 0, 0, 0, 0, 0, 0, 0, 0, 0, 0, 0, 0, 0, 0, 0, 0, 0, 0, 0, 0, 0, 0, 0, 0, 0, 0, 0, 0, 0, 0, 0, 0, 0, 0, 0, 0, 0, 0, 0, 0, 0, 0, 0, 0, 0], "sum_hessian": [415196.7, 294330.75, 120865.95, 167076.77, 127253.97, 78942.9, 41923.06, 68737.89, 98338.88, 91275.84, 35978.13, 32082.646, 46860.25, 26822.715, 15100.343, 45864.316, 22873.572, 44519.074, 53819.81, 59913.22, 31362.623, 18299.201, 17678.928, 20742.121, 11340.525, 18090.404, 28769.846, 21222.268, 5600.4478, 11686.173, 3414.1704, 9899.252, 35965.062, 21958.77, 914.8025, 33010.676, 11508.399, 38636.395, 15183.414, 39022.008, 20891.209, 4941.603, 26421.021, 7416.582, 10882.618, 12869.29, 4809.637, 8848.847, 11893.273, 1237.3362, 10103.189, 6896.9775, 11193.426, 24989.408, 3780.4365, 6192.3047, 15029.962, 4625.63, 974.81793, 3963.768, 7722.405, 1533.2994, 1880.8708], "tree_param": {"num_deleted": "0", "num_feature": "76", "num_nodes": "63", "size_leaf_vector": "1"}}, {"base_weights": [2.73421e-05, -0.0870095, 0.21270649, 0.046927907, -0.20664428, 0.29201886, 0.03171918, -0.014148214, 0.22757708, -0.09444485, -0.34505704, 0.2060084, 0.4439614, 0.10223698, -0.18480915, 0.047558717, -0.18059146, 0.12878059, 0.33192977, -0.0021548579, -0.2544654, -0.3919747, 0.2669118, 0.344303, 0.1087004, 0.5182393, 0.28119782, 0.19946484, -0.03210752, -0.39769715, -0.07377524, 0.015780557, -0.0053826324, -0.008479478, -0.039163083, 0.0085023595, 0.03893279, 0.028437812, 0.056431394, 0.01374261, -0.009348805, -0.03765078, -0.014235108, -0.057357408, -0.027741855, 0.06912677, 0.0072204703, 0.04312892, 0.022483787, 0.024301726, 0.0014874667, 0.03934932, 0.057551842, 0.017881421, 0.04245038, -0.0027010967, 0.026258146, 0.015808078, -0.010341065, -0.06631146, -0.028223082, 0.00085411826, -0.030220062], "categories": [], "categories_nodes": [], "categories_segments": [], "categories_sizes": [], "default_left": [0, 0, 0, 0, 0, 0, 0, 0, 0, 0, 0, 0, 0, 0, 0, 0, 0, 0, 0, 0, 0, 0, 0, 0, 0, 0, 0, 0, 0, 0, 0, 0, 0, 0, 0, 0, 0, 0, 0, 0, 0, 0, 0, 0, 0, 0, 0, 0, 0, 0, 0, 0, 0, 0, 0, 0, 0, 0, 0, 0, 0, 0, 0], "id": 11, "left_children": [1, 3, 5, 7, 9, 11, 13, 15, 17, 19, 21, 23, 25, 27, 29, 31, 33, 35, 37, 39, 41, 43, 45, 47, 49, 51, 53, 55, 57, 59, 61, -1, -1, -1, -1, -1, -1, -1, -1, -1, -1, -1, -1, -1, -1, -1, -1, -1, -1, -1, -1, -1, -1, -1, -1, -1, -1, -1, -1, -1, -1, -1, -1], "loss_changes": [7653.508, 4701.229, 1723.4668, 1527.3132, 2406.5103, 1090.5508, 558.78735, 1062.5942, 360.37683, 1264.1208, 1992.5381, 717.3013, 364.03516, 360.59738, 212.3732, 843.6841, 565.543, 204.75674, 187.12366, 692.20544, 428.13208, 1339.7822, 408.18848, 228.32544, 394.47568, 146.85547, 138.49628, 228.95935, 157.31017, 93.47742, 111.23355, 0.0, 0.0, 0.0, 0.0, 0.0, 0.0, 0.0, 0.0, 0.0, 0.0, 0.0, 0.0, 0.0, 0.0, 0.0, 0.0, 0.0, 0.0, 0.0, 0.0, 0.0, 0.0, 0.0, 0.0, 0.0, 0.0, 0.0, 0.0, 0.0, 0.0, 0.0, 0.0], "parents": [2147483647, 0, 0, 1, 1, 2, 2, 3, 3, 4, 4, 5, 5, 6, 6, 7, 7, 8, 8, 9, 9, 10, 10, 11, 11, 12, 12, 13, 13, 14, 14, 15, 15, 16, 16, 17, 17, 18, 18, 19, 19, 20, 20, 21, 21, 22, 22, 23, 23, 24, 24, 25, 25, 26, 26, 27, 27, 28, 28, 29, 29, 30, 30], "right_children": [2, 4, 6, 8, 10, 12, 14, 16, 18, 20, 22, 24, 26, 28, 30, 32, 34, 36, 38, 40, 42, 44, 46, 48, 50, 52, 54, 56, 58, 60, 62, -1, -1, -1, -1, -1, -1, -1, -1, -1, -1, -1, -1, -1, -1, -1, -1, -1, -1, -1, -1, -1, -1, -1, -1, -1, -1, -1, -1, -1, -1, -1, -1], "split_conditions": [60.0, 687.0, 3.0, 24.53, 67000.0, 6.0, 13981.0, 1.0, 1.0, 1.0, 1154.0, 687.0, 10114.0, 19.0, 14.68, 148.0, 8770.0, 10.0, 9.0, 5.0, 2.0, 4.0, 15222.0, 66000.0, 5.0, 372.71, 544.97, 12.86, 8300.0, 434.01, 21.0, 0.015780557, -0.0053826324, -0.008479478, -0.039163083, 0.0085023595, 0.03893279, 0.028437812, 0.056431394, 0.01374261, -0.009348805, -0.03765078, -0.014235108, -0.057357408, -0.027741855, 0.06912677, 0.0072204703, 0.04312892, 0.022483787, 0.024301726, 0.0014874667, 0.03934932, 0.057551842, 0.017881421, 0.04245038, -0.0027010967, 0.026258146, 0.015808078, -0.010341065, -0.06631146, -0.028223082, 0.00085411826, -0.030220062], "split_indices": [1, 54, 28, 5, 4, 18, 20, 59, 58, 59, 2, 54, 20, 29, 5, 25, 19, 18, 18, 30, 44, 18, 10, 4, 30, 2, 2, 5, 51, 2, 29, 0, 0, 0, 0, 0, 0, 0, 0, 0, 0, 0, 0, 0, 0, 0, 0, 0, 0, 0, 0, 0, 0, 0, 0, 0, 0, 0, 0, 0, 0, 0, 0], "split_type": [0, 0, 0, 0, 0, 0, 0, 0, 0, 0, 0, 0, 0, 0, 0, 0, 0, 0, 0, 0, 0, 0, 0, 0, 0, 0, 0, 0, 0, 0, 0, 0, 0, 0, 0, 0, 0, 0, 0, 0, 0, 0, 0, 0, 0, 0, 0, 0, 0, 0, 0, 0, 0, 0, 0, 0, 0, 0, 0, 0, 0, 0, 0], "sum_hessian": [413449.06, 293386.5, 120062.57, 138420.52, 154965.97, 83477.805, 36584.77, 103449.6, 34970.92, 85592.125, 69373.84, 53311.45, 30166.354, 27599.084, 8985.685, 75472.58, 27977.023, 17969.432, 17001.488, 54287.508, 31304.62, 64435.58, 4938.2686, 22013.322, 31298.127, 20706.105, 9460.248, 16009.94, 11589.145, 3075.687, 5909.9976, 36154.797, 39317.78, 19247.191, 8729.831, 15391.223, 2578.2097, 14122.739, 2878.7488, 21471.273, 32816.234, 14983.019, 16321.6, 24916.625, 39518.953, 1549.169, 3389.0994, 12730.678, 9282.645, 12868.373, 18429.754, 6528.109, 14177.996, 5524.534, 3935.7134, 3489.988, 12519.952, 3158.453, 8430.691, 925.2167, 2150.4702, 4347.9595, 1562.0377], "tree_param": {"num_deleted": "0", "num_feature": "76", "num_nodes": "63", "size_leaf_vector": "1"}}, {"base_weights": [2.6840562e-05, -0.07860361, 0.19278878, 1.750258e-05, -0.26006597, 0.25523105, -0.014499501, -0.08446071, 0.16154084, -0.37529236, -0.09615633, 0.40398663, 0.18387493, 0.047160946, -0.26040238, 0.032137614, -0.19959296, 0.05462977, 0.27881742, -0.27307272, -0.536938, -0.14557272, 0.22715981, 0.3047191, 0.5275612, 0.12039165, 0.3621597, 0.17765394, -0.045188252, -0.3226132, 0.18137325, -0.0020443648, 0.026699824, -0.02657378, -0.00095183926, 0.024225129, -0.002526026, 0.044643704, 0.018619744, -0.030176464, 0.02461542, -0.05964638, -0.0268288, -0.0033068096, -0.030727608, 0.043097854, 0.002444845, 0.045032457, 0.017789526, 0.046883833, 0.065818265, 0.0014273267, 0.021368997, 0.046907213, 0.024289785, 0.006677875, 0.030015035, -0.000748307, -0.032199815, -0.01956751, -0.053429812, 0.029495537, -0.037239503], "categories": [], "categories_nodes": [], "categories_segments": [], "categories_sizes": [], "default_left": [0, 0, 0, 0, 0, 0, 0, 0, 0, 0, 0, 0, 0, 0, 0, 0, 0, 0, 0, 0, 0, 0, 0, 0, 0, 0, 0, 0, 0, 0, 0, 0, 0, 0, 0, 0, 0, 0, 0, 0, 0, 0, 0, 0, 0, 0, 0, 0, 0, 0, 0, 0, 0, 0, 0, 0, 0, 0, 0, 0, 0, 0, 0], "id": 12, "left_children": [1, 3, 5, 7, 9, 11, 13, 15, 17, 19, 21, 23, 25, 27, 29, 31, 33, 35, 37, 39, 41, 43, 45, 47, 49, 51, 53, 55, 57, 59, 61, -1, -1, -1, -1, -1, -1, -1, -1, -1, -1, -1, -1, -1, -1, -1, -1, -1, -1, -1, -1, -1, -1, -1, -1, -1, -1, -1, -1, -1, -1, -1, -1], "loss_changes": [6241.712, 4172.929, 1544.3408, 2784.7766, 1669.749, 972.90283, 418.93008, 1798.8911, 878.6455, 857.12256, 583.41736, 363.77686, 701.2356, 266.2599, 152.52518, 822.25244, 847.68555, 549.65466, 518.4346, 474.344, 320.74902, 576.0773, 199.99284, 304.16418, 99.95703, 452.54474, 206.89722, 124.2543, 135.04776, 129.99387, 43.756126, 0.0, 0.0, 0.0, 0.0, 0.0, 0.0, 0.0, 0.0, 0.0, 0.0, 0.0, 0.0, 0.0, 0.0, 0.0, 0.0, 0.0, 0.0, 0.0, 0.0, 0.0, 0.0, 0.0, 0.0, 0.0, 0.0, 0.0, 0.0, 0.0, 0.0, 0.0, 0.0], "parents": [2147483647, 0, 0, 1, 1, 2, 2, 3, 3, 4, 4, 5, 5, 6, 6, 7, 7, 8, 8, 9, 9, 10, 10, 11, 11, 12, 12, 13, 13, 14, 14, 15, 15, 16, 16, 17, 17, 18, 18, 19, 19, 20, 20, 21, 21, 22, 22, 23, 23, 24, 24, 25, 25, 26, 26, 27, 27, 28, 28, 29, 29, 30, 30], "right_children": [2, 4, 6, 8, 10, 12, 14, 16, 18, 20, 22, 24, 26, 28, 30, 32, 34, 36, 38, 40, 42, 44, 46, 48, 50, 52, 54, 56, 58, 60, 62, -1, -1, -1, -1, -1, -1, -1, -1, -1, -1, -1, -1, -1, -1, -1, -1, -1, -1, -1, -1, -1, -1, -1, -1, -1, -1, -1, -1, -1, -1, -1, -1], "split_conditions": [60.0, 178538.0, 20763.0, 3.0, 3.0, 11500.0, 14237.0, 3129.0, 328.5, 9489.0, 942.59, 431.16, 9.0, 5.0, 864.18, 517.42, 22.9, 36744.0, 18900.0, 1154.0, 25.16, 90000.0, 26168.0, 49000.0, 7.0, 456.54, 2.0, 541.65, 6.0, 33699.0, 64.4, -0.0020443648, 0.026699824, -0.02657378, -0.00095183926, 0.024225129, -0.002526026, 0.044643704, 0.018619744, -0.030176464, 0.02461542, -0.05964638, -0.0268288, -0.0033068096, -0.030727608, 0.043097854, 0.002444845, 0.045032457, 0.017789526, 0.046883833, 0.065818265, 0.0014273267, 0.021368997, 0.046907213, 0.024289785, 0.006677875, 0.030015035, -0.000748307, -0.032199815, -0.01956751, -0.053429812, 0.029495537, -0.037239503], "split_indices": [1, 49, 19, 44, 44, 51, 20, 20, 2, 20, 2, 2, 33, 27, 2, 2, 5, 4, 17, 2, 5, 4, 10, 4, 18, 2, 28, 2, 28, 19, 21, 0, 0, 0, 0, 0, 0, 0, 0, 0, 0, 0, 0, 0, 0, 0, 0, 0, 0, 0, 0, 0, 0, 0, 0, 0, 0, 0, 0, 0, 0, 0, 0], "split_type": [0, 0, 0, 0, 0, 0, 0, 0, 0, 0, 0, 0, 0, 0, 0, 0, 0, 0, 0, 0, 0, 0, 0, 0, 0, 0, 0, 0, 0, 0, 0, 0, 0, 0, 0, 0, 0, 0, 0, 0, 0, 0, 0, 0, 0, 0, 0, 0, 0, 0, 0, 0, 0, 0, 0, 0, 0, 0, 0, 0, 0, 0, 0], "sum_hessian": [411795.06, 292487.88, 119307.17, 204074.67, 88413.21, 91686.836, 27620.34, 133995.92, 70078.74, 51912.758, 36500.453, 29715.602, 61971.23, 22086.23, 5534.109, 66575.89, 67420.04, 36663.28, 33415.457, 31810.346, 20102.41, 31663.654, 4836.7983, 16488.059, 13227.544, 45705.047, 16266.186, 9150.957, 12935.274, 4852.1743, 681.9345, 54401.0, 12174.886, 50013.61, 17406.432, 10946.14, 25717.14, 11885.855, 21529.604, 30146.574, 1663.7721, 16451.166, 3651.2454, 18675.943, 12987.711, 2409.004, 2427.7944, 7669.738, 8818.32, 9141.01, 4086.534, 21386.08, 24318.965, 8569.4375, 7696.748, 4807.3794, 4343.5776, 11389.067, 1546.207, 3039.276, 1812.8982, 567.80927, 114.125206], "tree_param": {"num_deleted": "0", "num_feature": "76", "num_nodes": "63", "size_leaf_vector": "1"}}, {"base_weights": [2.2928776e-05, 0.07000642, -0.18946393, -0.06879896, 0.14688456, -0.3128593, -0.073023714, 0.014759848, -0.2593426, 0.2041425, -0.017796012, -0.2444347, -0.55578715, -0.12796144, 0.115094304, -0.05171507, 0.18096553, -0.33132577, -0.011545981, 0.13885196, 0.34745842, 0.092110746, -0.14466672, -0.14864296, -0.37430218, -0.60995483, -0.1322522, -0.05145013, -0.29457802, 0.23456164, -4.9224775e-05, 0.010868781, -0.017652882, 0.038959388, 0.0076335124, -0.017800024, -0.044643264, 0.011401802, -0.013340543, 0.024921982, 0.005726818, 0.048094388, 0.027804255, -0.013368792, 0.015507168, -0.025980938, 0.0015138127, 0.01622825, -0.019294623, -0.042489965, -0.013675754, -0.049284, -0.076461576, 0.083361894, -0.020951627, -0.017647307, 0.009748999, -0.023232868, -0.056720294, 0.013710344, 0.040929522, 0.0041316333, -0.040364962], "categories": [], "categories_nodes": [], "categories_segments": [], "categories_sizes": [], "default_left": [0, 0, 0, 0, 0, 0, 0, 0, 0, 0, 0, 0, 0, 0, 0, 0, 0, 0, 0, 0, 0, 0, 0, 0, 0, 0, 0, 0, 0, 0, 0, 0, 0, 0, 0, 0, 0, 0, 0, 0, 0, 0, 0, 0, 0, 0, 0, 0, 0, 0, 0, 0, 0, 0, 0, 0, 0, 0, 0, 0, 0, 0, 0], "id": 13, "left_children": [1, 3, 5, 7, 9, 11, 13, 15, 17, 19, 21, 23, 25, 27, 29, 31, 33, 35, 37, 39, 41, 43, 45, 47, 49, 51, 53, 55, 57, 59, 61, -1, -1, -1, -1, -1, -1, -1, -1, -1, -1, -1, -1, -1, -1, -1, -1, -1, -1, -1, -1, -1, -1, -1, -1, -1, -1, -1, -1, -1, -1, -1, -1], "loss_changes": [5440.9697, 3197.488, 1589.9375, 1700.53, 1818.3115, 892.3721, 588.5724, 820.4088, 580.7478, 1338.6377, 693.8354, 521.3157, 270.38623, 561.79456, 177.08708, 1062.0215, 462.92847, 444.88184, 112.30031, 885.1395, 414.26562, 379.1499, 425.00687, 332.65735, 213.59058, 187.64136, 101.23043, 562.64, 234.71045, 107.31253, 109.61024, 0.0, 0.0, 0.0, 0.0, 0.0, 0.0, 0.0, 0.0, 0.0, 0.0, 0.0, 0.0, 0.0, 0.0, 0.0, 0.0, 0.0, 0.0, 0.0, 0.0, 0.0, 0.0, 0.0, 0.0, 0.0, 0.0, 0.0, 0.0, 0.0, 0.0, 0.0, 0.0], "parents": [2147483647, 0, 0, 1, 1, 2, 2, 3, 3, 4, 4, 5, 5, 6, 6, 7, 7, 8, 8, 9, 9, 10, 10, 11, 11, 12, 12, 13, 13, 14, 14, 15, 15, 16, 16, 17, 17, 18, 18, 19, 19, 20, 20, 21, 21, 22, 22, 23, 23, 24, 24, 25, 25, 26, 26, 27, 27, 28, 28, 29, 29, 30, 30], "right_children": [2, 4, 6, 8, 10, 12, 14, 16, 18, 20, 22, 24, 26, 28, 30, 32, 34, 36, 38, 40, 42, 44, 46, 48, 50, 52, 54, 56, 58, 60, 62, -1, -1, -1, -1, -1, -1, -1, -1, -1, -1, -1, -1, -1, -1, -1, -1, -1, -1, -1, -1, -1, -1, -1, -1, -1, -1, -1, -1, -1, -1, -1, -1], "split_conditions": [1.0, 4.0, 17.35, 22900.0, 3.0, 727.0, 60.0, 501.74, 25.43, 60.0, 87000.0, 15.0, 2.0, 11.0, 10737.0, 43000.0, 16.0, 6.0, 1.0, 10500.0, 11300.0, 262.28, 60.0, 35500.0, 60.0, 76000.0, 9.0, 1.0, 727.0, 8.0, 28387.0, 0.010868781, -0.017652882, 0.038959388, 0.0076335124, -0.017800024, -0.044643264, 0.011401802, -0.013340543, 0.024921982, 0.005726818, 0.048094388, 0.027804255, -0.013368792, 0.015507168, -0.025980938, 0.0015138127, 0.01622825, -0.019294623, -0.042489965, -0.013675754, -0.049284, -0.076461576, 0.083361894, -0.020951627, -0.017647307, 0.009748999, -0.023232868, -0.056720294, 0.013710344, 0.040929522, 0.0041316333, -0.040364962], "split_indices": [59, 18, 5, 51, 28, 54, 1, 2, 5, 1, 4, 29, 7, 36, 19, 4, 53, 30, 55, 51, 51, 2, 1, 4, 1, 4, 12, 58, 54, 39, 20, 0, 0, 0, 0, 0, 0, 0, 0, 0, 0, 0, 0, 0, 0, 0, 0, 0, 0, 0, 0, 0, 0, 0, 0, 0, 0, 0, 0, 0, 0, 0, 0], "split_type": [0, 0, 0, 0, 0, 0, 0, 0, 0, 0, 0, 0, 0, 0, 0, 0, 0, 0, 0, 0, 0, 0, 0, 0, 0, 0, 0, 0, 0, 0, 0, 0, 0, 0, 0, 0, 0, 0, 0, 0, 0, 0, 0, 0, 0, 0, 0, 0, 0, 0, 0, 0, 0, 0, 0, 0, 0, 0, 0, 0, 0, 0, 0], "sum_hessian": [410290.03, 299630.25, 110659.78, 106800.266, 192830.0, 53721.246, 56938.535, 74245.93, 32554.338, 143080.88, 49749.113, 41922.98, 11798.264, 44069.992, 12868.542, 53036.94, 21208.986, 25224.977, 7329.3623, 98305.58, 44775.3, 26657.432, 23091.684, 24132.957, 17790.023, 10458.482, 1339.7809, 30205.838, 13864.155, 6313.1445, 6555.3975, 23209.799, 29827.145, 7079.387, 14129.6, 10822.216, 14402.761, 3609.97, 3719.3923, 41777.723, 56527.85, 15308.219, 29467.082, 5811.1416, 20846.29, 13419.518, 9672.166, 3008.1443, 21124.812, 14662.863, 3127.16, 5963.5776, 4494.9053, 95.610954, 1244.1699, 16420.912, 13784.925, 11294.506, 2569.65, 4058.453, 2254.6917, 5950.056, 605.34125], "tree_param": {"num_deleted": "0", "num_feature": "76", "num_nodes": "63", "size_leaf_vector": "1"}}, {"base_weights": [8.497824e-06, -0.0665071, 0.16390072, 0.067670286, -0.1531065, 0.28405336, 0.069531724, -0.032567125, 0.16142616, -0.037724424, -0.2630504, 0.38443226, 0.19679978, 0.12703107, -0.11878864, 0.22533062, -0.094471365, 0.27275065, 0.070198655, 0.07441627, -0.16161965, -0.10339569, -0.36236617, 0.3353182, 0.5408019, 0.15712087, 0.45343706, 0.07202845, 0.28947392, -0.038920037, -0.29132396, 0.012588955, 0.035256997, -0.02423893, 0.00074634026, 0.02361434, 0.056287557, 0.01881074, -0.0026051176, 0.0037634165, 0.039343707, -0.009016999, -0.036107033, 0.008046771, -0.017246975, -0.043548282, -0.013318695, 0.0616087, 0.030972606, 0.060761582, 0.04303974, 0.030671284, 0.007976985, 0.05521801, 0.03179385, 0.017336894, -0.0016044414, 0.0058178334, 0.03242456, -0.0114574935, 0.01180822, -0.041352827, -0.0038277959], "categories": [], "categories_nodes": [], "categories_segments": [], "categories_sizes": [], "default_left": [0, 0, 0, 0, 0, 0, 0, 0, 0, 0, 0, 0, 0, 0, 0, 0, 0, 0, 0, 0, 0, 0, 0, 0, 0, 0, 0, 0, 0, 0, 0, 0, 0, 0, 0, 0, 0, 0, 0, 0, 0, 0, 0, 0, 0, 0, 0, 0, 0, 0, 0, 0, 0, 0, 0, 0, 0, 0, 0, 0, 0, 0, 0], "id": 14, "left_children": [1, 3, 5, 7, 9, 11, 13, 15, 17, 19, 21, 23, 25, 27, 29, 31, 33, 35, 37, 39, 41, 43, 45, 47, 49, 51, 53, 55, 57, 59, 61, -1, -1, -1, -1, -1, -1, -1, -1, -1, -1, -1, -1, -1, -1, -1, -1, -1, -1, -1, -1, -1, -1, -1, -1, -1, -1, -1, -1, -1, -1, -1, -1], "loss_changes": [4459.175, 3380.918, 1338.8433, 1072.6238, 2243.1768, 454.57715, 716.3259, 880.7921, 598.8319, 1198.9259, 1435.5879, 184.56738, 282.72913, 452.6787, 213.18767, 134.9043, 670.81506, 281.41443, 367.94006, 531.4435, 584.0759, 441.18478, 935.10205, 131.19556, 41.212402, 278.56335, 48.892944, 337.96796, 102.986084, 125.782074, 151.31921, 0.0, 0.0, 0.0, 0.0, 0.0, 0.0, 0.0, 0.0, 0.0, 0.0, 0.0, 0.0, 0.0, 0.0, 0.0, 0.0, 0.0, 0.0, 0.0, 0.0, 0.0, 0.0, 0.0, 0.0, 0.0, 0.0, 0.0, 0.0, 0.0, 0.0, 0.0, 0.0], "parents": [2147483647, 0, 0, 1, 1, 2, 2, 3, 3, 4, 4, 5, 5, 6, 6, 7, 7, 8, 8, 9, 9, 10, 10, 11, 11, 12, 12, 13, 13, 14, 14, 15, 15, 16, 16, 17, 17, 18, 18, 19, 19, 20, 20, 21, 21, 22, 22, 23, 23, 24, 24, 25, 25, 26, 26, 27, 27, 28, 28, 29, 29, 30, 30], "right_children": [2, 4, 6, 8, 10, 12, 14, 16, 18, 20, 22, 24, 26, 28, 30, 32, 34, 36, 38, 40, 42, 44, 46, 48, 50, 52, 54, 56, 58, 60, 62, -1, -1, -1, -1, -1, -1, -1, -1, -1, -1, -1, -1, -1, -1, -1, -1, -1, -1, -1, -1, -1, -1, -1, -1, -1, -1, -1, -1, -1, -1, -1, -1], "split_conditions": [60.0, 682.0, 1.0, 323.43, 6.0, 687.0, 717.0, 30160.0, 17.0, 1.0, 51000.0, 26.4, 30.32, 25.43, 747.0, 202.63, 5.0, 854.87, 66000.0, 803.75, 15308.0, 31000.0, 23.23, 64.0, 90400.0, 4.0, 23400.0, 13800.0, 3.0, 6.0, 584.96, 0.012588955, 0.035256997, -0.02423893, 0.00074634026, 0.02361434, 0.056287557, 0.01881074, -0.0026051176, 0.0037634165, 0.039343707, -0.009016999, -0.036107033, 0.008046771, -0.017246975, -0.043548282, -0.013318695, 0.0616087, 0.030972606, 0.060761582, 0.04303974, 0.030671284, 0.007976985, 0.05521801, 0.03179385, 0.017336894, -0.0016044414, 0.0058178334, 0.03242456, -0.0114574935, 0.01180822, -0.041352827, -0.0038277959], "split_indices": [1, 54, 55, 2, 30, 54, 54, 4, 53, 55, 4, 5, 5, 5, 54, 2, 33, 2, 4, 2, 20, 4, 5, 25, 49, 30, 51, 51, 18, 18, 2, 0, 0, 0, 0, 0, 0, 0, 0, 0, 0, 0, 0, 0, 0, 0, 0, 0, 0, 0, 0, 0, 0, 0, 0, 0, 0, 0, 0, 0, 0, 0, 0], "split_type": [0, 0, 0, 0, 0, 0, 0, 0, 0, 0, 0, 0, 0, 0, 0, 0, 0, 0, 0, 0, 0, 0, 0, 0, 0, 0, 0, 0, 0, 0, 0, 0, 0, 0, 0, 0, 0, 0, 0, 0, 0, 0, 0, 0, 0, 0, 0, 0, 0, 0, 0, 0, 0, 0, 0, 0, 0, 0, 0, 0, 0, 0, 0], "sum_hessian": [409036.5, 290955.34, 118081.16, 114127.27, 176828.08, 51939.984, 66141.17, 55158.65, 58968.62, 86283.48, 90544.6, 24145.418, 27794.566, 50671.43, 15469.744, 10674.534, 44484.117, 26554.428, 32414.193, 45291.23, 40992.242, 34727.97, 55816.633, 18386.223, 5759.195, 24079.652, 3714.915, 37859.53, 12811.898, 10578.815, 4890.9287, 5997.37, 4677.1636, 18145.795, 26338.32, 23587.309, 2967.12, 14565.848, 17848.346, 40614.137, 4677.094, 30185.93, 10806.312, 9483.549, 25244.418, 42312.79, 13503.843, 1526.2743, 16859.95, 3573.8647, 2185.3298, 8202.231, 15877.421, 2140.0222, 1574.8928, 17601.562, 20257.969, 1676.1027, 11135.796, 7139.7334, 3439.0823, 3296.0066, 1594.9222], "tree_param": {"num_deleted": "0", "num_feature": "76", "num_nodes": "63", "size_leaf_vector": "1"}}, {"base_weights": [1.0551751e-05, 0.06125465, -0.16621342, -0.011755548, 0.18615837, -0.13243432, -0.50448036, 0.055543408, -0.17445816, 0.2622467, 0.07230343, -0.2379538, -0.0370806, -0.5851665, -0.26637793, 0.16924974, -0.019624367, -0.24826917, 0.04953943, 0.09402148, 0.32251167, 0.16164446, -0.03609523, -0.11866676, -0.3385451, -0.1083019, 0.07647781, -0.24037251, -0.64723814, -0.014588848, -0.52020866, 6.0102648e-06, 0.022788545, -0.007043928, 0.015850637, -0.015538734, -0.04234648, 0.03328826, -0.011882568, 0.017783022, -0.009953224, 0.03742577, 0.017335294, 0.005920298, 0.029865194, -0.01066646, 0.013095147, -0.016392699, 0.02001731, -0.04046079, -0.0068719895, -0.005438014, -0.028943602, -0.00082700973, 0.02216647, 0.03317782, -0.03293569, -0.0721386, -0.041630436, 0.03269628, -0.015354301, -0.05761988, 0.061059684], "categories": [], "categories_nodes": [], "categories_segments": [], "categories_sizes": [], "default_left": [0, 0, 0, 0, 0, 0, 0, 0, 0, 0, 0, 0, 0, 0, 0, 0, 0, 0, 0, 0, 0, 0, 0, 0, 0, 0, 0, 0, 0, 0, 0, 0, 0, 0, 0, 0, 0, 0, 0, 0, 0, 0, 0, 0, 0, 0, 0, 0, 0, 0, 0, 0, 0, 0, 0, 0, 0, 0, 0, 0, 0, 0, 0], "id": 15, "left_children": [1, 3, 5, 7, 9, 11, 13, 15, 17, 19, 21, 23, 25, 27, 29, 31, 33, 35, 37, 39, 41, 43, 45, 47, 49, 51, 53, 55, 57, 59, 61, -1, -1, -1, -1, -1, -1, -1, -1, -1, -1, -1, -1, -1, -1, -1, -1, -1, -1, -1, -1, -1, -1, -1, -1, -1, -1, -1, -1, -1, -1, -1, -1], "loss_changes": [4149.233, 2716.0874, 1253.561, 2058.288, 951.73975, 1003.9158, 190.59814, 1136.5587, 909.4398, 667.5205, 426.34216, 568.1377, 424.0113, 158.36865, 161.68925, 525.0111, 724.71826, 672.8784, 650.7191, 281.97333, 373.9048, 338.61566, 234.57591, 312.96988, 457.85278, 314.59686, 248.65475, 58.709137, 106.35205, 60.78582, 81.53372, 0.0, 0.0, 0.0, 0.0, 0.0, 0.0, 0.0, 0.0, 0.0, 0.0, 0.0, 0.0, 0.0, 0.0, 0.0, 0.0, 0.0, 0.0, 0.0, 0.0, 0.0, 0.0, 0.0, 0.0, 0.0, 0.0, 0.0, 0.0, 0.0, 0.0, 0.0, 0.0], "parents": [2147483647, 0, 0, 1, 1, 2, 2, 3, 3, 4, 4, 5, 5, 6, 6, 7, 7, 8, 8, 9, 9, 10, 10, 11, 11, 12, 12, 13, 13, 14, 14, 15, 15, 16, 16, 17, 17, 18, 18, 19, 19, 20, 20, 21, 21, 22, 22, 23, 23, 24, 24, 25, 25, 26, 26, 27, 27, 28, 28, 29, 29, 30, 30], "right_children": [2, 4, 6, 8, 10, 12, 14, 16, 18, 20, 22, 24, 26, 28, 30, 32, 34, 36, 38, 40, 42, 44, 46, 48, 50, 52, 54, 56, 58, 60, 62, -1, -1, -1, -1, -1, -1, -1, -1, -1, -1, -1, -1, -1, -1, -1, -1, -1, -1, -1, -1, -1, -1, -1, -1, -1, -1, -1, -1, -1, -1, -1, -1], "split_conditions": [1.0, 6.0, 752.0, 81099.24, 6850.0, 17.35, 469.84, 5.0, 874.12, 267.79, 2.0, 61000.0, 7.0, 37000.0, 82000.0, 246.4, 91.7, 8228.0, 32900.0, 65000.0, 243374.0, 489.31, 10.0, 472.14, 19950.0, 1.0, 1.0, 4707.0, 21.51, 30200.0, 3.0, 6.0102648e-06, 0.022788545, -0.007043928, 0.015850637, -0.015538734, -0.04234648, 0.03328826, -0.011882568, 0.017783022, -0.009953224, 0.03742577, 0.017335294, 0.005920298, 0.029865194, -0.01066646, 0.013095147, -0.016392699, 0.02001731, -0.04046079, -0.0068719895, -0.005438014, -0.028943602, -0.00082700973, 0.02216647, 0.03317782, -0.03293569, -0.0721386, -0.041630436, 0.03269628, -0.015354301, -0.05761988, 0.061059684], "split_indices": [59, 18, 54, 4, 20, 5, 2, 30, 2, 2, 28, 4, 33, 4, 4, 2, 21, 20, 17, 4, 49, 2, 18, 2, 0, 63, 58, 20, 5, 17, 7, 0, 0, 0, 0, 0, 0, 0, 0, 0, 0, 0, 0, 0, 0, 0, 0, 0, 0, 0, 0, 0, 0, 0, 0, 0, 0, 0, 0, 0, 0, 0, 0], "split_type": [0, 0, 0, 0, 0, 0, 0, 0, 0, 0, 0, 0, 0, 0, 0, 0, 0, 0, 0, 0, 0, 0, 0, 0, 0, 0, 0, 0, 0, 0, 0, 0, 0, 0, 0, 0, 0, 0, 0, 0, 0, 0, 0, 0, 0, 0, 0, 0, 0, 0, 0, 0, 0, 0, 0, 0, 0, 0, 0, 0, 0, 0, 0], "sum_hessian": [407567.25, 297835.1, 109732.164, 187966.95, 109868.13, 99775.6, 9956.564, 132969.75, 54997.207, 65852.76, 44015.37, 47359.535, 52416.062, 7431.09, 2525.4749, 52916.566, 80053.18, 41365.9, 13631.308, 17372.244, 48480.516, 24127.383, 19887.988, 21671.322, 25688.213, 32213.014, 20203.05, 1137.407, 6293.6826, 1270.4906, 1254.9843, 13620.492, 39296.074, 62287.58, 17765.6, 27039.863, 14326.035, 5078.9727, 8552.335, 12123.274, 5248.969, 35988.035, 12492.48, 13809.261, 10318.121, 13982.745, 5905.244, 18979.553, 2691.7712, 20633.822, 5054.3906, 24828.365, 7384.648, 12759.716, 7443.335, 151.25125, 986.15576, 4756.011, 1537.6718, 365.44803, 905.0425, 1198.1138, 56.870564], "tree_param": {"num_deleted": "0", "num_feature": "76", "num_nodes": "63", "size_leaf_vector": "1"}}, {"base_weights": [-1.6164043e-06, -0.05016574, 0.17819014, 0.060171824, -0.13985029, 0.12839933, 0.3437269, 0.1360287, -0.049055092, -0.06779647, -0.30077478, 0.21629828, 0.026555642, 0.45621264, 0.2601607, 0.013328239, 0.23021895, -0.0040113963, -0.26668942, -0.012695259, -0.26191118, -0.22619903, -0.4943117, 0.054292526, 0.28181246, -0.04352368, 0.15426481, 0.31951666, 0.52553284, 0.3129146, 0.10310207, 0.022591947, -0.004995292, 0.036506843, 0.011933809, -0.009525857, 0.012070538, -0.034969743, -0.0031234045, -0.0067932517, 0.013691421, 0.0004255634, -0.031999327, -0.029412303, -0.0053330506, -0.03310066, -0.06090808, -0.0012810683, 0.02354627, 0.011967067, 0.036039058, 0.0076073855, -0.013822106, 0.019670716, -0.005591087, 0.036972795, -0.011545184, 0.04448965, 0.06250762, 0.019320313, 0.039831378, 0.0035716097, 0.030209912], "categories": [], "categories_nodes": [], "categories_segments": [], "categories_sizes": [], "default_left": [0, 0, 0, 0, 0, 0, 0, 0, 0, 0, 0, 0, 0, 0, 0, 0, 0, 0, 0, 0, 0, 0, 0, 0, 0, 0, 0, 0, 0, 0, 0, 0, 0, 0, 0, 0, 0, 0, 0, 0, 0, 0, 0, 0, 0, 0, 0, 0, 0, 0, 0, 0, 0, 0, 0, 0, 0, 0, 0, 0, 0, 0, 0], "id": 16, "left_children": [1, 3, 5, 7, 9, 11, 13, 15, 17, 19, 21, 23, 25, 27, 29, 31, 33, 35, 37, 39, 41, 43, 45, 47, 49, 51, 53, 55, 57, 59, 61, -1, -1, -1, -1, -1, -1, -1, -1, -1, -1, -1, -1, -1, -1, -1, -1, -1, -1, -1, -1, -1, -1, -1, -1, -1, -1, -1, -1, -1, -1, -1, -1], "loss_changes": [3634.5215, 3139.7036, 735.9712, 1178.7699, 2029.3093, 614.73816, 193.52295, 970.2986, 571.61475, 1293.1079, 780.67676, 391.14197, 284.8081, 82.50598, 98.10474, 490.63458, 709.96265, 549.9017, 195.37103, 778.29614, 413.24268, 458.8119, 281.09277, 129.12299, 334.16528, 232.78287, 100.63281, 65.129395, 45.392334, 90.35248, 40.033722, 0.0, 0.0, 0.0, 0.0, 0.0, 0.0, 0.0, 0.0, 0.0, 0.0, 0.0, 0.0, 0.0, 0.0, 0.0, 0.0, 0.0, 0.0, 0.0, 0.0, 0.0, 0.0, 0.0, 0.0, 0.0, 0.0, 0.0, 0.0, 0.0, 0.0, 0.0, 0.0], "parents": [2147483647, 0, 0, 1, 1, 2, 2, 3, 3, 4, 4, 5, 5, 6, 6, 7, 7, 8, 8, 9, 9, 10, 10, 11, 11, 12, 12, 13, 13, 14, 14, 15, 15, 16, 16, 17, 17, 18, 18, 19, 19, 20, 20, 21, 21, 22, 22, 23, 23, 24, 24, 25, 25, 26, 26, 27, 27, 28, 28, 29, 29, 30, 30], "right_children": [2, 4, 6, 8, 10, 12, 14, 16, 18, 20, 22, 24, 26, 28, 30, 32, 34, 36, 38, 40, 42, 44, 46, 48, 50, 52, 54, 56, 58, 60, 62, -1, -1, -1, -1, -1, -1, -1, -1, -1, -1, -1, -1, -1, -1, -1, -1, -1, -1, -1, -1, -1, -1, -1, -1, -1, -1, -1, -1, -1, -1, -1, -1], "split_conditions": [25.84, 5.0, 8.0, 2.0, 8359.0, 26.0, 32.0, 328.5, 18965.0, 35.0, 737.0, 3.0, 60.0, 296.53, 300971.0, 4300.0, 10187.0, 496.52, 786.19, 507.76, 176.0, 60.0, 64500.0, 60.0, 277.29, 49893.0, 722.0, 79327.0, 1.0, 368.45, 814.03, 0.022591947, -0.004995292, 0.036506843, 0.011933809, -0.009525857, 0.012070538, -0.034969743, -0.0031234045, -0.0067932517, 0.013691421, 0.0004255634, -0.031999327, -0.029412303, -0.0053330506, -0.03310066, -0.06090808, -0.0012810683, 0.02354627, 0.011967067, 0.036039058, 0.0076073855, -0.013822106, 0.019670716, -0.005591087, 0.036972795, -0.011545184, 0.04448965, 0.06250762, 0.019320313, 0.039831378, 0.0035716097, 0.030209912], "split_indices": [5, 30, 18, 28, 20, 12, 12, 2, 20, 29, 54, 18, 1, 2, 49, 51, 10, 2, 2, 2, 20, 1, 4, 1, 2, 52, 54, 50, 58, 2, 2, 0, 0, 0, 0, 0, 0, 0, 0, 0, 0, 0, 0, 0, 0, 0, 0, 0, 0, 0, 0, 0, 0, 0, 0, 0, 0, 0, 0, 0, 0, 0, 0], "split_type": [0, 0, 0, 0, 0, 0, 0, 0, 0, 0, 0, 0, 0, 0, 0, 0, 0, 0, 0, 0, 0, 0, 0, 0, 0, 0, 0, 0, 0, 0, 0, 0, 0, 0, 0, 0, 0, 0, 0, 0, 0, 0, 0, 0, 0, 0, 0, 0, 0, 0, 0, 0, 0, 0, 0, 0, 0, 0, 0, 0, 0, 0, 0], "sum_hessian": [406589.1, 317274.38, 89314.73, 142258.05, 175016.31, 68669.055, 20645.68, 83952.64, 58305.406, 120893.47, 54122.848, 36854.855, 31814.197, 8790.617, 11855.0625, 36461.027, 47491.617, 48311.49, 9993.918, 94168.28, 26725.186, 39076.36, 15046.488, 10614.957, 26239.896, 20544.096, 11270.103, 2967.2983, 5823.319, 8870.588, 2984.4739, 8360.6875, 28100.34, 21424.46, 26067.156, 27900.027, 20411.46, 7387.193, 2606.7249, 68777.64, 25390.639, 4788.0605, 21937.125, 28050.98, 11025.377, 6218.1284, 8828.359, 7749.3423, 2865.615, 8569.598, 17670.299, 9078.913, 11465.182, 9376.88, 1893.2228, 2660.8848, 306.41345, 3232.2993, 2591.0193, 3700.1191, 5170.469, 2233.9077, 750.56635], "tree_param": {"num_deleted": "0", "num_feature": "76", "num_nodes": "63", "size_leaf_vector": "1"}}, {"base_weights": [-7.927987e-06, -0.057056807, 0.14117447, 0.028188486, -0.17008357, 0.26062047, 0.06585179, -0.13103688, 0.08405115, -0.11919045, -0.39372757, 0.07671889, 0.30575627, -0.039281398, 0.19123724, 0.020625066, -0.23981671, 0.060502447, 0.40934926, -0.15821262, 0.12156976, -0.32937685, -0.6126502, -0.01721814, 0.2703796, 0.23296097, 0.40419304, -0.10666104, 0.1494881, 0.30246204, 0.048940793, 0.029438479, -0.0026059728, -0.01126543, -0.038462017, 0.01386436, -0.005135286, 0.058913317, 0.017747637, -0.010829623, -0.034401633, 0.02521886, 0.0026144006, -0.047666296, -0.022305412, -0.011064732, -0.066200726, 0.018779876, -0.011918709, 0.0469176, 0.018598687, 0.01585146, 0.0326173, 0.019665617, 0.04343827, 0.0074676806, -0.017257906, 0.020769125, -0.004348624, 0.023887582, 0.050297167, 0.018792968, -0.0064317207], "categories": [], "categories_nodes": [], "categories_segments": [], "categories_sizes": [], "default_left": [0, 0, 0, 0, 0, 0, 0, 0, 0, 0, 0, 0, 0, 0, 0, 0, 0, 0, 0, 0, 0, 0, 0, 0, 0, 0, 0, 0, 0, 0, 0, 0, 0, 0, 0, 0, 0, 0, 0, 0, 0, 0, 0, 0, 0, 0, 0, 0, 0, 0, 0, 0, 0, 0, 0, 0, 0, 0, 0, 0, 0, 0, 0], "id": 17, "left_children": [1, 3, 5, 7, 9, 11, 13, 15, 17, 19, 21, 23, 25, 27, 29, 31, 33, 35, 37, 39, 41, 43, 45, 47, 49, 51, 53, 55, 57, 59, 61, -1, -1, -1, -1, -1, -1, -1, -1, -1, -1, -1, -1, -1, -1, -1, -1, -1, -1, -1, -1, -1, -1, -1, -1, -1, -1, -1, -1, -1, -1, -1, -1], "loss_changes": [3266.6917, 2783.1992, 1050.0676, 1464.7725, 1413.3333, 374.5559, 943.74097, 705.6437, 933.72235, 950.66406, 323.302, 161.9672, 259.2251, 495.4117, 516.6865, 228.40875, 458.40613, 993.6832, 342.49292, 807.34595, 175.89569, 278.24365, 129.06458, 125.52428, 48.349777, 144.3982, 96.06348, 343.15723, 115.12671, 233.04004, 225.64569, 0.0, 0.0, 0.0, 0.0, 0.0, 0.0, 0.0, 0.0, 0.0, 0.0, 0.0, 0.0, 0.0, 0.0, 0.0, 0.0, 0.0, 0.0, 0.0, 0.0, 0.0, 0.0, 0.0, 0.0, 0.0, 0.0, 0.0, 0.0, 0.0, 0.0, 0.0, 0.0], "parents": [2147483647, 0, 0, 1, 1, 2, 2, 3, 3, 4, 4, 5, 5, 6, 6, 7, 7, 8, 8, 9, 9, 10, 10, 11, 11, 12, 12, 13, 13, 14, 14, 15, 15, 16, 16, 17, 17, 18, 18, 19, 19, 20, 20, 21, 21, 22, 22, 23, 23, 24, 24, 25, 25, 26, 26, 27, 27, 28, 28, 29, 29, 30, 30], "right_children": [2, 4, 6, 8, 10, 12, 14, 16, 18, 20, 22, 24, 26, 28, 30, 32, 34, 36, 38, 40, 42, 44, 46, 48, 50, 52, 54, 56, 58, 60, 62, -1, -1, -1, -1, -1, -1, -1, -1, -1, -1, -1, -1, -1, -1, -1, -1, -1, -1, -1, -1, -1, -1, -1, -1, -1, -1, -1, -1, -1, -1, -1, -1], "split_conditions": [60.0, 1.0, 61000.0, 3.0, 722.0, 286.16, 575.51, 6.0, 843.9, 9.0, 767.0, 6.0, 1.0, 8.0, 23367.0, 2696.0, 5.0, 5265.0, 22060.0, 1.0, 17.0, 4.0, 9700.0, 36744.0, 38000.0, 1.0, 2.0, 9200.0, 15887.0, 864.18, 692.0, 0.029438479, -0.0026059728, -0.01126543, -0.038462017, 0.01386436, -0.005135286, 0.058913317, 0.017747637, -0.010829623, -0.034401633, 0.02521886, 0.0026144006, -0.047666296, -0.022305412, -0.011064732, -0.066200726, 0.018779876, -0.011918709, 0.0469176, 0.018598687, 0.01585146, 0.0326173, 0.019665617, 0.04343827, 0.0074676806, -0.017257906, 0.020769125, -0.004348624, 0.023887582, 0.050297167, 0.018792968, -0.0064317207], "split_indices": [1, 55, 4, 18, 54, 2, 2, 30, 2, 18, 54, 39, 58, 33, 10, 10, 36, 20, 10, 63, 53, 18, 51, 4, 4, 7, 18, 51, 20, 2, 54, 0, 0, 0, 0, 0, 0, 0, 0, 0, 0, 0, 0, 0, 0, 0, 0, 0, 0, 0, 0, 0, 0, 0, 0, 0, 0, 0, 0, 0, 0, 0, 0], "split_type": [0, 0, 0, 0, 0, 0, 0, 0, 0, 0, 0, 0, 0, 0, 0, 0, 0, 0, 0, 0, 0, 0, 0, 0, 0, 0, 0, 0, 0, 0, 0, 0, 0, 0, 0, 0, 0, 0, 0, 0, 0, 0, 0, 0, 0, 0, 0, 0, 0, 0, 0, 0, 0, 0, 0, 0, 0, 0, 0, 0, 0, 0, 0], "sum_hessian": [405573.7, 288855.97, 116717.73, 164667.08, 124188.89, 45133.36, 71584.37, 42765.586, 121901.49, 101173.25, 23015.637, 8896.974, 36236.383, 38938.58, 32645.787, 17863.775, 24901.809, 113678.13, 8223.359, 87063.766, 14109.489, 17796.893, 5218.745, 5994.054, 2902.9194, 20841.01, 15395.375, 28697.447, 10241.13, 18320.273, 14325.514, 2598.6658, 15265.11, 13263.264, 11638.545, 66924.24, 46753.89, 4627.612, 3595.748, 68633.266, 18430.494, 5952.918, 8156.571, 7453.8496, 10343.042, 468.6268, 4750.118, 1989.5975, 4004.4568, 858.30066, 2044.6187, 11594.358, 9246.651, 1959.8805, 13435.494, 7650.5176, 21046.93, 7867.751, 2373.3794, 13917.63, 4402.6436, 6430.627, 7894.886], "tree_param": {"num_deleted": "0", "num_feature": "76", "num_nodes": "63", "size_leaf_vector": "1"}}, {"base_weights": [-9.461969e-06, -0.06641729, 0.11275958, 0.010535502, -0.17940158, 0.04443527, 0.22045967, 0.05327611, -0.15120897, -0.1926093, 0.58740705, 0.08610612, -0.15721732, 0.076905906, 0.28861666, -0.07393041, 0.11139359, -0.21610647, 0.013298968, -0.29934344, -0.10013277, 0.634871, 0.0004059032, -0.032542303, 0.15913992, -0.3523229, -0.09123751, -0.084502526, 0.15697315, 0.4802473, 0.2457504, 0.0124221435, -0.01532386, 0.03003158, 0.0054877405, -0.01634246, -0.042134713, 0.015637329, -0.007906346, -0.01003532, -0.037139583, 0.0034949325, -0.017713489, 0.014380953, 0.06623086, -0.012811202, 0.10314337, -0.01319508, 0.007000126, 0.020148426, -0.0032783472, -0.05348533, -0.013323664, 0.0143746305, -0.015458047, -0.069924824, -0.0048240847, 0.037617154, 0.009561272, 0.04086004, 0.07138198, 0.021163508, 0.049122293], "categories": [], "categories_nodes": [], "categories_segments": [], "categories_sizes": [], "default_left": [0, 0, 0, 0, 0, 0, 0, 0, 0, 0, 0, 0, 0, 0, 0, 0, 0, 0, 0, 0, 0, 0, 0, 0, 0, 0, 0, 0, 0, 0, 0, 0, 0, 0, 0, 0, 0, 0, 0, 0, 0, 0, 0, 0, 0, 0, 0, 0, 0, 0, 0, 0, 0, 0, 0, 0, 0, 0, 0, 0, 0, 0, 0], "id": 18, "left_children": [1, 3, 5, 7, 9, 11, 13, 15, 17, 19, 21, 23, 25, 27, 29, 31, 33, 35, 37, 39, 41, 43, 45, 47, 49, 51, 53, 55, 57, 59, 61, -1, -1, -1, -1, -1, -1, -1, -1, -1, -1, -1, -1, -1, -1, -1, -1, -1, -1, -1, -1, -1, -1, -1, -1, -1, -1, -1, -1, -1, -1, -1, -1], "loss_changes": [3027.7065, 2212.3647, 1102.59, 1046.4565, 1044.6682, 770.5291, 568.9512, 885.22156, 337.8039, 1000.22485, 48.668762, 658.50024, 201.99814, 242.13666, 323.3518, 590.2168, 877.44305, 244.9823, 118.40441, 674.3467, 564.9408, 21.2995, 18.639725, 295.22775, 382.29797, 158.2789, 174.88846, 138.35138, 168.2425, 119.0918, 269.44373, 0.0, 0.0, 0.0, 0.0, 0.0, 0.0, 0.0, 0.0, 0.0, 0.0, 0.0, 0.0, 0.0, 0.0, 0.0, 0.0, 0.0, 0.0, 0.0, 0.0, 0.0, 0.0, 0.0, 0.0, 0.0, 0.0, 0.0, 0.0, 0.0, 0.0, 0.0, 0.0], "parents": [2147483647, 0, 0, 1, 1, 2, 2, 3, 3, 4, 4, 5, 5, 6, 6, 7, 7, 8, 8, 9, 9, 10, 10, 11, 11, 12, 12, 13, 13, 14, 14, 15, 15, 16, 16, 17, 17, 18, 18, 19, 19, 20, 20, 21, 21, 22, 22, 23, 23, 24, 24, 25, 25, 26, 26, 27, 27, 28, 28, 29, 29, 30, 30], "right_children": [2, 4, 6, 8, 10, 12, 14, 16, 18, 20, 22, 24, 26, 28, 30, 32, 34, 36, 38, 40, 42, 44, 46, 48, 50, 52, 54, 56, 58, 60, 62, -1, -1, -1, -1, -1, -1, -1, -1, -1, -1, -1, -1, -1, -1, -1, -1, -1, -1, -1, -1, -1, -1, -1, -1, -1, -1, -1, -1, -1, -1, -1, -1], "split_conditions": [3.0, 5265.0, 1.0, 44.0, 1.0, 18965.0, 267.79, 267.79, 60.0, 16.28, 787.0, 335.87, 323.43, 14.85, 13000.0, 32640.0, 6100.0, 1.0, 7700.0, 3.0, 6.0, 131.79, 37.0, 6.0, 1.0, 6.3, 137.0, 69.74, 17681.0, 521.24, 30.79, 0.0124221435, -0.01532386, 0.03003158, 0.0054877405, -0.01634246, -0.042134713, 0.015637329, -0.007906346, -0.01003532, -0.037139583, 0.0034949325, -0.017713489, 0.014380953, 0.06623086, -0.012811202, 0.10314337, -0.01319508, 0.007000126, 0.020148426, -0.0032783472, -0.05348533, -0.013323664, 0.0143746305, -0.015458047, -0.069924824, -0.0048240847, 0.037617154, 0.009561272, 0.04086004, 0.07138198, 0.021163508, 0.049122293], "split_indices": [44, 20, 58, 29, 73, 20, 2, 2, 1, 5, 54, 2, 2, 5, 17, 4, 51, 63, 51, 36, 36, 2, 12, 39, 63, 46, 25, 2, 52, 2, 5, 0, 0, 0, 0, 0, 0, 0, 0, 0, 0, 0, 0, 0, 0, 0, 0, 0, 0, 0, 0, 0, 0, 0, 0, 0, 0, 0, 0, 0, 0, 0, 0], "split_type": [0, 0, 0, 0, 0, 0, 0, 0, 0, 0, 0, 0, 0, 0, 0, 0, 0, 0, 0, 0, 0, 0, 0, 0, 0, 0, 0, 0, 0, 0, 0, 0, 0, 0, 0, 0, 0, 0, 0, 0, 0, 0, 0, 0, 0, 0, 0, 0, 0, 0, 0, 0, 0, 0, 0, 0, 0, 0, 0, 0, 0, 0, 0], "sum_hessian": [404290.75, 254450.89, 149839.88, 151363.1, 103087.8, 91683.47, 58156.406, 119728.47, 31634.623, 101345.93, 1741.8646, 75984.41, 15699.063, 18725.979, 39430.426, 37546.34, 82182.125, 22684.242, 8950.382, 47041.08, 54304.85, 1611.1796, 130.6851, 28952.252, 47032.156, 3961.8823, 11737.182, 6208.97, 12517.009, 7198.5938, 32231.834, 10731.302, 26815.04, 18918.809, 63263.32, 18058.025, 4626.2163, 3509.8977, 5440.4834, 12508.303, 34532.777, 19717.635, 34587.215, 86.9109, 1524.2687, 120.094055, 10.591044, 14700.124, 14252.129, 38530.797, 8501.358, 2157.319, 1804.5632, 2490.7783, 9246.403, 340.7531, 5868.2173, 2731.9585, 9785.051, 5519.3223, 1679.2714, 28307.078, 3924.7542], "tree_param": {"num_deleted": "0", "num_feature": "76", "num_nodes": "63", "size_leaf_vector": "1"}}, {"base_weights": [-1.03219645e-05, 0.16705549, -0.041249674, 0.09000361, 0.26855248, -0.14134255, 0.03786726, 0.3582162, 0.05302693, 0.37766284, 0.17037947, 0.02156246, -0.21014634, 0.16563526, -0.013041759, 0.14338523, 0.47393093, -0.0026252654, 0.19595462, 0.3441272, 0.7591664, 0.3671252, 0.11864148, -0.085864075, 0.15307638, -0.22408177, 0.4909655, 0.109820195, 0.31306475, -0.057819124, 0.15956028, 0.029644802, 0.0008212114, 0.041452184, 0.074077904, -0.018858224, 0.005228217, 0.02357225, -0.0053781257, 0.053961147, 0.030894741, 0.09518614, 0.057737626, 0.042779747, 0.007118251, 0.0002538139, 0.021643443, 0.012333919, -0.015812106, -0.0075103343, 0.022539398, -0.028718172, -0.0073382454, -0.033713933, 0.054010898, 0.025293043, 0.005603566, 0.04116673, 0.023835165, 0.007135005, -0.011961302, 0.008843816, 0.026615852], "categories": [], "categories_nodes": [], "categories_segments": [], "categories_sizes": [], "default_left": [0, 0, 0, 0, 0, 0, 0, 0, 0, 0, 0, 0, 0, 0, 0, 0, 0, 0, 0, 0, 0, 0, 0, 0, 0, 0, 0, 0, 0, 0, 0, 0, 0, 0, 0, 0, 0, 0, 0, 0, 0, 0, 0, 0, 0, 0, 0, 0, 0, 0, 0, 0, 0, 0, 0, 0, 0, 0, 0, 0, 0, 0, 0], "id": 19, "left_children": [1, 3, 5, 7, 9, 11, 13, 15, 17, 19, 21, 23, 25, 27, 29, 31, 33, 35, 37, 39, 41, 43, 45, 47, 49, 51, 53, 55, 57, 59, 61, -1, -1, -1, -1, -1, -1, -1, -1, -1, -1, -1, -1, -1, -1, -1, -1, -1, -1, -1, -1, -1, -1, -1, -1, -1, -1, -1, -1, -1, -1, -1, -1], "loss_changes": [2779.7258, 624.54956, 2562.5203, 450.29575, 368.88232, 1601.2312, 1175.6062, 136.41998, 317.51068, 207.49463, 184.55725, 599.44336, 981.85205, 423.57434, 998.9287, 39.982594, 55.113525, 293.4462, 111.16467, 102.39636, 43.30078, 67.66852, 163.26898, 353.12393, 314.8603, 936.38477, 80.63272, 287.50565, 103.670166, 819.1814, 201.73126, 0.0, 0.0, 0.0, 0.0, 0.0, 0.0, 0.0, 0.0, 0.0, 0.0, 0.0, 0.0, 0.0, 0.0, 0.0, 0.0, 0.0, 0.0, 0.0, 0.0, 0.0, 0.0, 0.0, 0.0, 0.0, 0.0, 0.0, 0.0, 0.0, 0.0, 0.0, 0.0], "parents": [2147483647, 0, 0, 1, 1, 2, 2, 3, 3, 4, 4, 5, 5, 6, 6, 7, 7, 8, 8, 9, 9, 10, 10, 11, 11, 12, 12, 13, 13, 14, 14, 15, 15, 16, 16, 17, 17, 18, 18, 19, 19, 20, 20, 21, 21, 22, 22, 23, 23, 24, 24, 25, 25, 26, 26, 27, 27, 28, 28, 29, 29, 30, 30], "right_children": [2, 4, 6, 8, 10, 12, 14, 16, 18, 20, 22, 24, 26, 28, 30, 32, 34, 36, 38, 40, 42, 44, 46, 48, 50, 52, 54, 56, 58, 60, 62, -1, -1, -1, -1, -1, -1, -1, -1, -1, -1, -1, -1, -1, -1, -1, -1, -1, -1, -1, -1, -1, -1, -1, -1, -1, -1, -1, -1, -1, -1, -1, -1], "split_conditions": [2.0, 2.0, 17.08, 75.0, 26.0, 41900.0, 677.0, 252.14, 24.29, 843.9, 129.0, 323.43, 1.0, 60.0, 29.88, 5100.0, 656.11, 256.46, 59500.0, 2596.0, 12922.0, 1.0, 415.76, 30160.0, 2.0, 60.0, 4200.0, 21500.0, 6130.0, 29100.0, 1.0, 0.029644802, 0.0008212114, 0.041452184, 0.074077904, -0.018858224, 0.005228217, 0.02357225, -0.0053781257, 0.053961147, 0.030894741, 0.09518614, 0.057737626, 0.042779747, 0.007118251, 0.0002538139, 0.021643443, 0.012333919, -0.015812106, -0.0075103343, 0.022539398, -0.028718172, -0.0073382454, -0.033713933, 0.054010898, 0.025293043, 0.005603566, 0.04116673, 0.023835165, 0.007135005, -0.011961302, 0.008843816, 0.026615852], "split_indices": [30, 7, 5, 25, 12, 49, 54, 2, 5, 2, 25, 2, 73, 1, 5, 51, 2, 2, 17, 10, 10, 63, 2, 4, 18, 1, 0, 52, 19, 52, 58, 0, 0, 0, 0, 0, 0, 0, 0, 0, 0, 0, 0, 0, 0, 0, 0, 0, 0, 0, 0, 0, 0, 0, 0, 0, 0, 0, 0, 0, 0, 0, 0], "split_type": [0, 0, 0, 0, 0, 0, 0, 0, 0, 0, 0, 0, 0, 0, 0, 0, 0, 0, 0, 0, 0, 0, 0, 0, 0, 0, 0, 0, 0, 0, 0, 0, 0, 0, 0, 0, 0, 0, 0, 0, 0, 0, 0, 0, 0, 0, 0, 0, 0, 0, 0, 0, 0, 0, 0, 0, 0, 0, 0, 0, 0, 0, 0], "sum_hessian": [403451.97, 79870.65, 323581.3, 45408.23, 34462.414, 142851.83, 180729.48, 5496.391, 39911.84, 16315.259, 18147.156, 42419.55, 100432.28, 51490.598, 129238.88, 1928.0509, 3568.34, 28730.043, 11181.797, 15005.71, 1309.5487, 3772.1611, 14374.995, 23348.871, 19070.682, 98478.31, 1953.9731, 37356.566, 14134.032, 102619.97, 26618.91, 901.39453, 1026.6564, 2929.0134, 639.3267, 6546.524, 22183.52, 9646.044, 1535.7532, 2277.6672, 12728.043, 625.42596, 684.12274, 3128.5405, 643.62067, 6574.564, 7800.431, 5993.2573, 17355.613, 4589.4985, 14481.183, 69410.586, 29067.723, 107.82016, 1846.153, 10199.406, 27157.16, 6083.1934, 8050.839, 33206.63, 69413.34, 15971.745, 10647.165], "tree_param": {"num_deleted": "0", "num_feature": "76", "num_nodes": "63", "size_leaf_vector": "1"}}, {"base_weights": [-3.197359e-06, 0.048939086, -0.13326827, 0.08803122, -0.111563064, -0.24502425, -0.056471482, 0.19364408, 0.031799484, -0.17535183, 0.045629587, -0.010847775, -0.2968846, 0.006461796, -0.1577956, 0.13043569, 0.34368446, 0.1220048, -0.049237702, -0.015389852, -0.2589873, 0.11224705, -0.17991634, -0.18168609, 0.15194836, -0.36809942, -0.066109516, -0.025666064, 0.22929616, -0.23701133, 0.041791808, 0.033849947, 0.009874888, 0.051489037, 0.021995587, -0.002598587, 0.016101865, -0.011785547, 0.01393007, 0.008964901, -0.012065754, -0.04648071, -0.01920319, 0.01657964, -0.013860404, -0.0053411783, -0.027993947, -0.020664735, 0.042429868, 0.010764194, 0.06081086, -0.029395882, -0.05162959, 0.017345537, -0.02287205, -0.018292584, 0.0011569001, 0.04269488, 0.013309002, -0.028025273, -0.0043512615, 0.027546141, -0.0073304498], "categories": [], "categories_nodes": [], "categories_segments": [], "categories_sizes": [], "default_left": [0, 0, 0, 0, 0, 0, 0, 0, 0, 0, 0, 0, 0, 0, 0, 0, 0, 0, 0, 0, 0, 0, 0, 0, 0, 0, 0, 0, 0, 0, 0, 0, 0, 0, 0, 0, 0, 0, 0, 0, 0, 0, 0, 0, 0, 0, 0, 0, 0, 0, 0, 0, 0, 0, 0, 0, 0, 0, 0, 0, 0, 0, 0], "id": 20, "left_children": [1, 3, 5, 7, 9, 11, 13, 15, 17, 19, 21, 23, 25, 27, 29, 31, 33, 35, 37, 39, 41, 43, 45, 47, 49, 51, 53, 55, 57, 59, 61, -1, -1, -1, -1, -1, -1, -1, -1, -1, -1, -1, -1, -1, -1, -1, -1, -1, -1, -1, -1, -1, -1, -1, -1, -1, -1, -1, -1, -1, -1, -1, -1], "loss_changes": [2625.812, 1847.5457, 928.03174, 1406.1776, 578.33276, 534.86304, 408.75385, 779.98755, 1129.5742, 548.8456, 250.30042, 222.36761, 592.46924, 283.14764, 388.34894, 381.50146, 515.91187, 422.22375, 1053.1656, 155.86053, 370.80725, 172.83647, 47.99279, 59.44867, 82.42118, 301.98047, 331.67877, 202.42265, 94.48331, 147.05298, 187.88731, 0.0, 0.0, 0.0, 0.0, 0.0, 0.0, 0.0, 0.0, 0.0, 0.0, 0.0, 0.0, 0.0, 0.0, 0.0, 0.0, 0.0, 0.0, 0.0, 0.0, 0.0, 0.0, 0.0, 0.0, 0.0, 0.0, 0.0, 0.0, 0.0, 0.0, 0.0, 0.0], "parents": [2147483647, 0, 0, 1, 1, 2, 2, 3, 3, 4, 4, 5, 5, 6, 6, 7, 7, 8, 8, 9, 9, 10, 10, 11, 11, 12, 12, 13, 13, 14, 14, 15, 15, 16, 16, 17, 17, 18, 18, 19, 19, 20, 20, 21, 21, 22, 22, 23, 23, 24, 24, 25, 25, 26, 26, 27, 27, 28, 28, 29, 29, 30, 30], "right_children": [2, 4, 6, 8, 10, 12, 14, 16, 18, 20, 22, 24, 26, 28, 30, 32, 34, 36, 38, 40, 42, 44, 46, 48, 50, 52, 54, 56, 58, 60, 62, -1, -1, -1, -1, -1, -1, -1, -1, -1, -1, -1, -1, -1, -1, -1, -1, -1, -1, -1, -1, -1, -1, -1, -1, -1, -1, -1, -1, -1, -1, -1, -1], "split_conditions": [1.0, 1.0, 5.0, 133.0, 60.0, 38000.0, 70500.0, 507.76, 66000.0, 49000.0, 20763.0, 202.63, 483.94, 532.92, 19950.0, 44.0, 10277.0, 12.0, 814.03, 16617.0, 3.0, 31.0, 692.0, 3.0, 472.14, 9041.0, 14100.0, 3.0, 13486.0, 2.0, 157900.0, 0.033849947, 0.009874888, 0.051489037, 0.021995587, -0.002598587, 0.016101865, -0.011785547, 0.01393007, 0.008964901, -0.012065754, -0.04648071, -0.01920319, 0.01657964, -0.013860404, -0.0053411783, -0.027993947, -0.020664735, 0.042429868, 0.010764194, 0.06081086, -0.029395882, -0.05162959, 0.017345537, -0.02287205, -0.018292584, 0.0011569001, 0.04269488, 0.013309002, -0.028025273, -0.0043512615, 0.027546141, -0.0073304498], "split_indices": [59, 63, 33, 25, 1, 4, 4, 2, 4, 4, 19, 2, 2, 2, 0, 25, 10, 46, 2, 52, 18, 29, 54, 7, 2, 20, 51, 18, 10, 7, 49, 0, 0, 0, 0, 0, 0, 0, 0, 0, 0, 0, 0, 0, 0, 0, 0, 0, 0, 0, 0, 0, 0, 0, 0, 0, 0, 0, 0, 0, 0, 0, 0], "split_type": [0, 0, 0, 0, 0, 0, 0, 0, 0, 0, 0, 0, 0, 0, 0, 0, 0, 0, 0, 0, 0, 0, 0, 0, 0, 0, 0, 0, 0, 0, 0, 0, 0, 0, 0, 0, 0, 0, 0, 0, 0, 0, 0, 0, 0, 0, 0, 0, 0, 0, 0, 0, 0, 0, 0, 0, 0, 0, 0, 0, 0, 0, 0], "sum_hessian": [402580.03, 294446.28, 108133.75, 236778.45, 57667.836, 44037.99, 64095.766, 82262.72, 154515.73, 41020.957, 16646.88, 7985.4736, 36052.51, 39541.117, 24554.648, 57886.062, 24376.654, 73120.37, 81395.37, 14085.952, 26935.006, 12853.091, 3793.7896, 3896.21, 4089.2637, 27548.389, 8504.124, 34562.4, 4978.72, 17577.316, 6977.3306, 7644.1553, 50241.906, 10219.673, 14156.981, 15255.098, 57865.273, 59677.76, 21717.6, 7051.0107, 7034.941, 6604.1733, 20330.832, 10593.405, 2259.6855, 1678.5316, 2115.2578, 3745.234, 150.97586, 3732.873, 356.39072, 18372.04, 9176.351, 3438.321, 5065.803, 6613.053, 27949.344, 1624.351, 3354.3696, 14364.928, 3212.39, 2300.2913, 4677.0396], "tree_param": {"num_deleted": "0", "num_feature": "76", "num_nodes": "63", "size_leaf_vector": "1"}}, {"base_weights": [-1.3083615e-05, -0.036445346, 0.16963978, 0.05846504, -0.10442687, 0.2614729, 0.07867912, -0.056636397, 0.11084966, -0.15893929, 0.02777258, -0.028362567, 0.29357427, 0.00062234164, 0.19238546, 0.08381044, -0.13299806, 0.2795862, 0.06460745, -0.08061069, -0.2583644, 0.14024717, -0.058338065, -0.17906758, 0.15927403, 0.15832135, 0.34903374, -0.2160499, 0.050979722, 0.23833323, -0.012113314, 0.019801855, -0.003071313, -0.0548266, -0.011055003, 0.049525198, 0.021669095, 0.009945852, -0.015882108, -0.0028881296, -0.024212692, -0.018267818, -0.037168417, 0.024542918, 0.006317763, 0.0015725387, -0.015508776, -0.026191944, 0.003797266, 0.05362165, 0.007993875, 0.012283756, 0.04611913, 0.030134892, 0.049577333, -0.03269088, -0.0031708274, 0.014434345, -0.004388585, 0.00636742, 0.029102493, -0.01903313, 0.016379729], "categories": [], "categories_nodes": [], "categories_segments": [], "categories_sizes": [], "default_left": [0, 0, 0, 0, 0, 0, 0, 0, 0, 0, 0, 0, 0, 0, 0, 0, 0, 0, 0, 0, 0, 0, 0, 0, 0, 0, 0, 0, 0, 0, 0, 0, 0, 0, 0, 0, 0, 0, 0, 0, 0, 0, 0, 0, 0, 0, 0, 0, 0, 0, 0, 0, 0, 0, 0, 0, 0, 0, 0, 0, 0, 0, 0], "id": 21, "left_children": [1, 3, 5, 7, 9, 11, 13, 15, 17, 19, 21, 23, 25, 27, 29, 31, 33, 35, 37, 39, 41, 43, 45, 47, 49, 51, 53, 55, 57, 59, 61, -1, -1, -1, -1, -1, -1, -1, -1, -1, -1, -1, -1, -1, -1, -1, -1, -1, -1, -1, -1, -1, -1, -1, -1, -1, -1, -1, -1, -1, -1, -1, -1], "loss_changes": [2483.7573, 2134.456, 593.3064, 832.4895, 1389.0779, 328.9253, 316.826, 463.2079, 740.25696, 1062.7441, 545.1234, 99.9417, 238.43677, 231.05678, 136.54388, 199.01282, 260.4975, 276.2838, 580.03345, 637.8275, 515.43823, 197.76114, 228.44585, 35.287468, 46.87534, 99.27243, 157.1482, 81.55946, 152.22012, 109.09888, 83.8777, 0.0, 0.0, 0.0, 0.0, 0.0, 0.0, 0.0, 0.0, 0.0, 0.0, 0.0, 0.0, 0.0, 0.0, 0.0, 0.0, 0.0, 0.0, 0.0, 0.0, 0.0, 0.0, 0.0, 0.0, 0.0, 0.0, 0.0, 0.0, 0.0, 0.0, 0.0, 0.0], "parents": [2147483647, 0, 0, 1, 1, 2, 2, 3, 3, 4, 4, 5, 5, 6, 6, 7, 7, 8, 8, 9, 9, 10, 10, 11, 11, 12, 12, 13, 13, 14, 14, 15, 15, 16, 16, 17, 17, 18, 18, 19, 19, 20, 20, 21, 21, 22, 22, 23, 23, 24, 24, 25, 25, 26, 26, 27, 27, 28, 28, 29, 29, 30, 30], "right_children": [2, 4, 6, 8, 10, 12, 14, 16, 18, 20, 22, 24, 26, 28, 30, 32, 34, 36, 38, 40, 42, 44, 46, 48, 50, 52, 54, 56, 58, 60, 62, -1, -1, -1, -1, -1, -1, -1, -1, -1, -1, -1, -1, -1, -1, -1, -1, -1, -1, -1, -1, -1, -1, -1, -1, -1, -1, -1, -1, -1, -1, -1, -1], "split_conditions": [8.0, 2765.0, 32.0, 262.28, 60.0, 164.62, 11.0, 36744.0, 4500.0, 1.0, 1.0, 4.0, 14.85, 14.41, 25499.0, 13848.0, 65.47, 6.0, 60.0, 1.0, 81099.24, 6.0, 83000.0, 49.8, 6500.0, 843.9, 11.0, 532.92, 75000.0, 6.0, 532.92, 0.019801855, -0.003071313, -0.0548266, -0.011055003, 0.049525198, 0.021669095, 0.009945852, -0.015882108, -0.0028881296, -0.024212692, -0.018267818, -0.037168417, 0.024542918, 0.006317763, 0.0015725387, -0.015508776, -0.026191944, 0.003797266, 0.05362165, 0.007993875, 0.012283756, 0.04611913, 0.030134892, 0.049577333, -0.03269088, -0.0031708274, 0.014434345, -0.004388585, 0.00636742, 0.029102493, -0.01903313, 0.016379729], "split_indices": [18, 20, 12, 2, 1, 2, 18, 4, 51, 55, 55, 32, 5, 5, 20, 52, 2, 38, 29, 63, 4, 36, 4, 11, 